%YAML:1.0
my_svm: !!opencv-ml-svm
   svm_type: C_SVC
   kernel: { type:RBF, gamma:5.3830000000000000e+000 }
   C: 2.6699999999999999e+000
   term_criteria: { epsilon:1.1920928955078125e-007, iterations:1000 }
   var_all: 64
   var_count: 64
   class_count: 27
   class_labels: !!opencv-matrix
      rows: 1
      cols: 27
      dt: i
      data: [ 0, 1, 2, 3, 4, 5, 6, 7, 8, 9, 10, 11, 12, 13, 14, 15, 16,
          17, 18, 19, 20, 21, 22, 23, 24, 25, 26 ]
   sv_total: 602
   support_vectors:
      - [ 1.26390934e-001, 9.11702290e-002, 8.69599208e-002,
          1.06216483e-001, 1.32745996e-001, 1.32469028e-001,
          1.86409041e-001, 2.23963425e-001, 6.39711320e-002,
          3.61969508e-002, 3.71627808e-002, 3.48485336e-002,
          3.80994901e-002, 4.07751948e-002, 8.68555382e-002,
          2.88478643e-001, 1.69076458e-001, 9.44879130e-002,
          8.71300921e-002, 1.03347123e-001, 9.09893662e-002,
          1.94274068e-001, 1.05926998e-001, 7.69918934e-002,
          5.97697943e-002, 5.31661324e-002, 5.27677014e-002,
          1.02823637e-001, 1.72937959e-001, 2.23690137e-001,
          2.59612888e-001, 9.75961685e-002, 2.94760317e-001,
          3.38068843e-001, 1.79111063e-001, 1.00588441e-001,
          1.39656827e-001, 1.23213895e-001, 1.35610104e-001,
          2.32070670e-001, 3.35090786e-001, 2.70220309e-001,
          1.18233241e-001, 5.86341433e-002, 5.02455868e-002,
          3.75094339e-002, 5.73260374e-002, 1.97153166e-001,
          5.95947988e-002, 6.23283796e-002, 5.91387078e-002,
          5.35916090e-002, 8.09648931e-002, 9.04521123e-002,
          7.57655501e-002, 7.88579360e-002, 1.71339512e-001,
          2.58467346e-001, 1.63451612e-001, 1.51195213e-001,
          1.22812919e-001, 7.51987696e-002, 8.12673867e-002,
          6.65963516e-002 ]
      - [ 1.33086637e-001, 8.96615759e-002, 8.40149671e-002,
          1.13298289e-001, 1.31617516e-001, 1.52000353e-001,
          1.78881988e-001, 2.28676811e-001, 7.59964734e-002,
          4.29728590e-002, 2.67357454e-002, 4.05682363e-002,
          4.81539853e-002, 4.40342724e-002, 9.19443369e-002,
          2.88317561e-001, 1.60493150e-001, 1.11158662e-001,
          1.01119108e-001, 1.01530038e-001, 9.07085761e-002,
          1.86994106e-001, 1.09883726e-001, 8.23868960e-002,
          5.99810518e-002, 5.12846000e-002, 5.90700880e-002,
          1.00842588e-001, 1.80080652e-001, 2.19037175e-001,
          2.65409112e-001, 9.52463448e-002, 3.17016035e-001,
          3.37032527e-001, 1.70474291e-001, 1.18400864e-001,
          1.33137032e-001, 1.38719261e-001, 1.49864718e-001,
          2.16625601e-001, 3.36427540e-001, 2.81760126e-001,
          1.11594051e-001, 6.56415373e-002, 5.18541746e-002,
          3.12351678e-002, 8.27716962e-002, 1.71971202e-001,
          5.31022660e-002, 5.14299311e-002, 5.51073663e-002,
          6.02973476e-002, 7.37200901e-002, 9.31486413e-002,
          6.90675452e-002, 7.50777349e-002, 1.66494548e-001,
          2.65120775e-001, 1.63810775e-001, 1.58420250e-001,
          1.16489179e-001, 7.71842822e-002, 8.04558694e-002,
          7.42066503e-002 ]
      - [ 1.29364312e-001, 9.46550146e-002, 7.79332444e-002,
          1.16877027e-001, 1.26194149e-001, 1.42392814e-001,
          1.91142976e-001, 2.25201726e-001, 7.16775060e-002,
          3.44524384e-002, 2.99422313e-002, 3.59604843e-002,
          4.05725241e-002, 4.17440571e-002, 8.64643157e-002,
          2.92568028e-001, 1.63247705e-001, 1.06483385e-001,
          8.77145082e-002, 1.02123313e-001, 9.78578478e-002,
          1.83959007e-001, 1.11314297e-001, 7.12504685e-002,
          6.26860335e-002, 5.33666313e-002, 5.41743599e-002,
          1.07415207e-001, 1.75528020e-001, 2.15323642e-001,
          2.69752473e-001, 9.41558778e-002, 3.30782920e-001,
          3.23129565e-001, 1.85101196e-001, 1.14550814e-001,
          1.35474980e-001, 1.41360015e-001, 1.38641834e-001,
          2.17065930e-001, 3.38104188e-001, 2.87551939e-001,
          1.15216501e-001, 5.94212674e-002, 4.97053601e-002,
          3.04163396e-002, 5.73239774e-002, 1.73550785e-001,
          5.55370189e-002, 4.87499423e-002, 5.99455498e-002,
          6.20136447e-002, 7.63729066e-002, 8.77512917e-002,
          6.77072331e-002, 7.42731467e-002, 1.76486939e-001,
          2.58544326e-001, 1.68167755e-001, 1.61148041e-001,
          1.17256381e-001, 7.57752582e-002, 7.94735551e-002,
          7.59011209e-002 ]
      - [ 1.21120624e-001, 9.20600891e-002, 8.99716318e-002,
          1.05519980e-001, 1.41066015e-001, 1.38349086e-001,
          2.02892497e-001, 2.20080718e-001, 5.76510020e-002,
          3.51129360e-002, 3.30504552e-002, 3.32036987e-002,
          4.61692028e-002, 4.34658043e-002, 9.51842815e-002,
          2.97283888e-001, 1.63966820e-001, 1.07126229e-001,
          9.63487849e-002, 9.65287834e-002, 9.77594033e-002,
          1.87573984e-001, 1.07168801e-001, 7.67876431e-002,
          5.72156198e-002, 5.50380908e-002, 5.12808785e-002,
          1.02377981e-001, 1.82104215e-001, 2.18571067e-001,
          2.68575937e-001, 9.74701494e-002, 3.29825163e-001,
          3.29966158e-001, 1.87697098e-001, 1.18809104e-001,
          1.34141177e-001, 1.42660886e-001, 1.51153296e-001,
          2.20063448e-001, 3.36235613e-001, 2.87318200e-001,
          1.21259369e-001, 6.00961186e-002, 5.06460741e-002,
          3.06305233e-002, 5.06241173e-002, 1.75553262e-001,
          5.32581396e-002, 4.87860255e-002, 5.08690886e-002,
          5.38416058e-002, 8.01671743e-002, 7.54965395e-002,
          7.37179816e-002, 8.02576840e-002, 1.71301603e-001,
          2.61968076e-001, 1.69649035e-001, 1.61540970e-001,
          1.24772504e-001, 7.46918023e-002, 7.81746954e-002,
          7.60027617e-002 ]
      - [ 1.40708506e-001, 9.12153646e-002, 9.37271044e-002,
          1.19034618e-001, 1.40105501e-001, 1.62261456e-001,
          1.85220957e-001, 2.35793054e-001, 7.05410689e-002,
          5.70914969e-002, 4.65915538e-002, 5.12350239e-002,
          7.93239027e-002, 7.51766786e-002, 1.06933035e-001,
          2.92225808e-001, 1.54866159e-001, 9.66987461e-002,
          9.56511274e-002, 1.00152582e-001, 1.00181311e-001,
          1.78976595e-001, 1.06439203e-001, 6.48745000e-002,
          6.36770800e-002, 5.29868379e-002, 5.82850240e-002,
          9.90728736e-002, 1.83492497e-001, 2.09205970e-001,
          2.68862545e-001, 1.12839177e-001, 3.15312684e-001,
          3.31048816e-001, 1.96789816e-001, 1.33703008e-001,
          1.36662811e-001, 1.41040251e-001, 1.37485787e-001,
          2.12021858e-001, 3.30410510e-001, 3.00341696e-001,
          1.14041023e-001, 5.74550405e-002, 4.97347452e-002,
          3.40766795e-002, 4.46561612e-002, 1.70705512e-001,
          5.15522696e-002, 4.57369648e-002, 3.97564881e-002,
          6.03624620e-002, 7.43937641e-002, 7.35772625e-002,
          7.70458281e-002, 8.09928924e-002, 1.73709750e-001,
          2.52986938e-001, 1.71218187e-001, 1.62208527e-001,
          1.25423610e-001, 7.38530383e-002, 7.81573132e-002,
          7.53908306e-002 ]
      - [ 1.46774486e-001, 1.16714910e-001, 1.23622574e-001,
          1.32150650e-001, 1.24278240e-001, 1.44626275e-001,
          2.26261362e-001, 2.06822038e-001, 1.30898267e-001,
          1.17585473e-001, 1.15320250e-001, 1.01369768e-001,
          1.21326327e-001, 1.21122092e-001, 1.96881488e-001,
          2.45619461e-001, 1.47747010e-001, 1.11325391e-001,
          1.16293833e-001, 1.13439322e-001, 1.54867813e-001,
          2.20908493e-001, 8.90681893e-002, 6.68270141e-002,
          4.99332994e-002, 5.42201884e-002, 5.64736053e-002,
          1.01083435e-001, 1.79578334e-001, 2.75503546e-001,
          2.07343951e-001, 1.53158680e-001, 2.94616699e-001,
          3.08838814e-001, 1.80588365e-001, 1.27069488e-001,
          1.56232506e-001, 1.33738682e-001, 1.40362471e-001,
          2.24281937e-001, 3.00465792e-001, 2.65594393e-001,
          1.02381356e-001, 5.44842891e-002, 5.14517128e-002,
          3.49445902e-002, 6.62209392e-002, 2.00240925e-001,
          6.54310137e-002, 1.04913503e-001, 1.06773116e-001,
          8.77406225e-002, 1.06227726e-001, 1.04462646e-001,
          8.96219984e-002, 1.01563029e-001, 1.77268609e-001,
          2.77032793e-001, 1.82632297e-001, 1.72766939e-001,
          1.42484382e-001, 8.58951807e-002, 8.68486837e-002,
          7.82222748e-002 ]
      - [ 2.44705155e-001, 1.13348886e-001, 1.13758989e-001,
          1.37008458e-001, 1.62275925e-001, 1.74764901e-001,
          2.44689286e-001, 1.60955191e-001, 7.97480419e-002,
          6.30553588e-002, 7.08775744e-002, 8.71645436e-002,
          8.32092911e-002, 6.65022731e-002, 2.34732762e-001,
          2.81881958e-001, 1.60410166e-001, 8.09124336e-002,
          8.78405645e-002, 9.01977494e-002, 9.31317806e-002,
          1.80421904e-001, 1.10755384e-001, 7.97957480e-002,
          6.85541853e-002, 5.73561303e-002, 6.62820116e-002,
          1.03854336e-001, 1.77037388e-001, 2.26864219e-001,
          2.57658780e-001, 1.31300956e-001, 2.19216868e-001,
          3.17492574e-001, 1.87097788e-001, 1.24049380e-001,
          1.43778682e-001, 1.48783341e-001, 1.51699677e-001,
          2.26326033e-001, 3.17872494e-001, 2.82952517e-001,
          1.20475248e-001, 5.60868718e-002, 5.26238121e-002,
          3.75455059e-002, 4.80515771e-002, 8.86268243e-002,
          6.46072924e-002, 5.68479896e-002, 5.15579283e-002,
          6.27433062e-002, 8.12074542e-002, 7.97305629e-002,
          7.24886283e-002, 8.97261873e-002, 1.85102239e-001,
          2.47590378e-001, 1.67018726e-001, 1.62238181e-001,
          1.32087201e-001, 8.10557529e-002, 8.92836377e-002,
          8.16318914e-002 ]
      - [ 1.27175644e-001, 1.10169008e-001, 1.12374604e-001,
          1.33114234e-001, 1.52766302e-001, 1.58926681e-001,
          2.28606761e-001, 1.61070853e-001, 8.93360749e-002,
          7.00115263e-002, 6.34428784e-002, 7.87745267e-002,
          8.37251842e-002, 7.23671615e-002, 2.13027611e-001,
          2.34397218e-001, 1.48034200e-001, 9.43125486e-002,
          8.10854062e-002, 8.51192623e-002, 9.44800898e-002,
          1.99713349e-001, 9.13238302e-002, 7.64304399e-002,
          5.71069904e-002, 5.03400564e-002, 6.47317171e-002,
          9.50899273e-002, 1.62503868e-001, 2.59673208e-001,
          2.15209320e-001, 1.28360569e-001, 2.90353984e-001,
          3.09584528e-001, 1.86589763e-001, 1.15315579e-001,
          1.34037971e-001, 1.48561835e-001, 1.52377918e-001,
          2.13443130e-001, 3.11067402e-001, 2.77364612e-001,
          1.19787700e-001, 5.44804819e-002, 5.37867770e-002,
          3.22711505e-002, 6.04658537e-002, 1.80818900e-001,
          6.86099008e-002, 4.77530584e-002, 5.77211641e-002,
          6.93169609e-002, 7.61597306e-002, 8.06353092e-002,
          7.54122287e-002, 7.84877390e-002, 1.84146017e-001,
          2.44129166e-001, 1.60839856e-001, 1.54649869e-001,
          1.37463957e-001, 8.28801170e-002, 8.26562345e-002,
          8.03090334e-002 ]
      - [ 1.61476627e-001, 1.14133984e-001, 1.24628462e-001,
          1.35773078e-001, 1.60015732e-001, 1.37850225e-001,
          2.46448234e-001, 1.77580982e-001, 1.35341883e-001,
          9.86362547e-002, 1.06105484e-001, 1.13615334e-001,
          1.40464693e-001, 1.09402604e-001, 2.38900065e-001,
          2.20632389e-001, 1.56392828e-001, 9.83404815e-002,
          9.93868485e-002, 1.23407274e-001, 1.54355824e-001,
          2.29528517e-001, 9.26388502e-002, 7.27346390e-002,
          5.18009737e-002, 5.60851619e-002, 7.94714391e-002,
          1.04000404e-001, 1.85376957e-001, 2.67816573e-001,
          2.30188474e-001, 1.58129156e-001, 2.93241441e-001,
          3.24880093e-001, 1.87175542e-001, 1.33554474e-001,
          1.56607598e-001, 1.40867665e-001, 1.50402471e-001,
          2.14256868e-001, 3.12733322e-001, 2.78392494e-001,
          1.13992773e-001, 6.02336116e-002, 5.35072461e-002,
          3.90568934e-002, 6.49484470e-002, 1.73448801e-001,
          6.73887283e-002, 1.02462605e-001, 9.30791572e-002,
          9.20985416e-002, 9.79600176e-002, 1.10057153e-001,
          8.81396383e-002, 1.02315105e-001, 1.83473870e-001,
          2.71637022e-001, 1.91035375e-001, 1.72283813e-001,
          1.47034153e-001, 8.62178430e-002, 8.72115344e-002,
          8.28455612e-002 ]
      - [ 1.93752438e-001, 1.40744060e-001, 1.18594259e-001,
          1.21423528e-001, 1.37313679e-001, 1.65527001e-001,
          2.39605725e-001, 1.81117415e-001, 1.43156588e-001,
          1.24277733e-001, 1.08373351e-001, 1.13265119e-001,
          1.19475611e-001, 1.15438975e-001, 2.47764885e-001,
          2.42348969e-001, 1.60467729e-001, 9.35650244e-002,
          1.03992574e-001, 1.20296441e-001, 1.56777591e-001,
          2.26027474e-001, 8.59365389e-002, 8.06109607e-002,
          5.42139150e-002, 5.01275063e-002, 7.52634779e-002,
          1.02781825e-001, 1.83974326e-001, 2.66875774e-001,
          2.20470041e-001, 1.62026256e-001, 2.51781613e-001,
          3.14340174e-001, 1.94261655e-001, 1.43847421e-001,
          1.50181651e-001, 1.34735182e-001, 1.53108731e-001,
          2.31225044e-001, 2.98489541e-001, 2.72314072e-001,
          1.10498153e-001, 5.86858243e-002, 5.49787730e-002,
          3.78020778e-002, 8.05044547e-002, 1.70602098e-001,
          7.15338737e-002, 1.06318012e-001, 8.07623044e-002,
          9.35510471e-002, 1.11172087e-001, 1.00422278e-001,
          8.70069191e-002, 9.22769159e-002, 1.93488583e-001,
          2.63693810e-001, 1.89184576e-001, 1.75025180e-001,
          1.43499225e-001, 8.58009905e-002, 8.84009153e-002,
          7.99018666e-002 ]
      - [ 2.07718536e-001, 1.41652033e-001, 1.30495608e-001,
          1.61772057e-001, 1.66764960e-001, 1.57984242e-001,
          2.59662837e-001, 1.45159096e-001, 1.12627953e-001,
          9.23686028e-002, 8.66463482e-002, 9.54002440e-002,
          1.12391479e-001, 1.09121807e-001, 2.68130869e-001,
          2.94532150e-001, 1.57907724e-001, 7.94040486e-002,
          7.47288093e-002, 8.82487223e-002, 1.06856927e-001,
          2.07149923e-001, 8.19951594e-002, 7.12179318e-002,
          5.57149574e-002, 5.37024438e-002, 6.31937236e-002,
          9.68520939e-002, 1.75064594e-001, 2.55039662e-001,
          2.18784750e-001, 1.31906211e-001, 2.05740750e-001,
          3.11054051e-001, 1.61626399e-001, 1.43428698e-001,
          1.52921796e-001, 1.57510668e-001, 1.71991616e-001,
          2.49648392e-001, 2.86868930e-001, 2.68355906e-001,
          1.16500944e-001, 5.15352860e-002, 5.76723814e-002,
          3.30740623e-002, 3.91847827e-002, 8.19285810e-002,
          7.24870265e-002, 4.72992994e-002, 8.64654854e-002,
          7.40142539e-002, 8.81752744e-002, 7.11848810e-002,
          8.02237615e-002, 9.10695493e-002, 1.94627479e-001,
          2.39958674e-001, 1.69605613e-001, 1.68644458e-001,
          1.42929852e-001, 8.27021822e-002, 9.42937061e-002,
          8.10150877e-002 ]
      - [ 2.30746195e-001, 1.50381684e-001, 1.33973464e-001,
          1.61994755e-001, 1.76111549e-001, 1.39794171e-001,
          2.67678469e-001, 1.46728545e-001, 1.47908300e-001,
          1.19884521e-001, 1.03591107e-001, 1.16989829e-001,
          1.12976238e-001, 1.16262846e-001, 2.83349097e-001,
          2.79920995e-001, 1.50623605e-001, 8.91830176e-002,
          9.44964886e-002, 9.71839055e-002, 1.28981724e-001,
          2.23383874e-001, 7.88656697e-002, 7.81525522e-002,
          4.73658554e-002, 5.17806672e-002, 6.63703755e-002,
          9.15478840e-002, 1.78702235e-001, 2.71021664e-001,
          2.07918510e-001, 1.46865115e-001, 2.08265752e-001,
          3.07077467e-001, 1.73780069e-001, 1.32641181e-001,
          1.49909109e-001, 1.49140552e-001, 1.75590798e-001,
          2.29393348e-001, 2.97232509e-001, 2.60434985e-001,
          1.15238465e-001, 5.43111116e-002, 5.35253175e-002,
          3.80114131e-002, 4.09698896e-002, 8.83672610e-002,
          7.30745196e-002, 5.52885197e-002, 9.00620967e-002,
          1.02769434e-001, 1.00484371e-001, 9.08647329e-002,
          8.69765431e-002, 7.96161741e-002, 1.92823216e-001,
          2.49194339e-001, 1.74809143e-001, 1.82848781e-001,
          1.41506821e-001, 9.80497003e-002, 8.80522728e-002,
          7.93231875e-002 ]
      - [ 1.88317686e-001, 1.42747149e-001, 1.14904813e-001,
          1.07241370e-001, 1.19562797e-001, 1.17134690e-001,
          2.54083484e-001, 1.15403958e-001, 9.93496180e-002,
          8.22742432e-002, 6.92661554e-002, 8.65013078e-002,
          9.14739147e-002, 9.71692726e-002, 2.58703291e-001,
          2.74305075e-001, 1.46702722e-001, 8.10103342e-002,
          1.09222047e-001, 9.65115726e-002, 1.53856963e-001,
          1.89922705e-001, 6.34533390e-002, 8.31137076e-002,
          4.63941097e-002, 5.12326434e-002, 5.96084967e-002,
          8.83580968e-002, 1.71459749e-001, 2.50632524e-001,
          1.67152300e-001, 1.37162194e-001, 1.92522451e-001,
          2.61503547e-001, 1.98144227e-001, 1.21015474e-001,
          1.37166813e-001, 1.49237633e-001, 1.46983415e-001,
          2.42172509e-001, 2.69450277e-001, 2.45944321e-001,
          1.11055031e-001, 6.07068539e-002, 5.21646962e-002,
          3.08296233e-002, 3.76611277e-002, 5.31823002e-002,
          6.51617795e-002, 4.38616462e-002, 8.25620741e-002,
          6.82647824e-002, 7.97159374e-002, 7.07189515e-002,
          6.94324225e-002, 9.41247046e-002, 1.88145250e-001,
          2.18535095e-001, 1.55670986e-001, 1.52249411e-001,
          1.24013096e-001, 8.78155231e-002, 8.31950456e-002,
          8.02184418e-002 ]
      - [ 1.82498172e-001, 1.39673933e-001, 1.15027703e-001,
          1.07442692e-001, 1.33632496e-001, 1.29368618e-001,
          2.58803397e-001, 1.09204121e-001, 1.06792122e-001,
          7.93441534e-002, 8.08528215e-002, 9.14411023e-002,
          1.03055418e-001, 9.13279206e-002, 2.62242705e-001,
          2.82917708e-001, 1.51239440e-001, 8.56577158e-002,
          1.09222263e-001, 9.92110819e-002, 1.57332346e-001,
          1.91922948e-001, 7.01056421e-002, 6.09982386e-002,
          5.13074622e-002, 4.99404445e-002, 5.93796857e-002,
          9.18067172e-002, 1.66218191e-001, 2.54707485e-001,
          1.76075041e-001, 1.29280791e-001, 1.91389769e-001,
          2.59454906e-001, 2.10758731e-001, 1.22954026e-001,
          1.38323262e-001, 1.53577581e-001, 1.68984607e-001,
          2.42462903e-001, 2.54430324e-001, 2.50715643e-001,
          1.17936559e-001, 4.79550995e-002, 5.07036187e-002,
          3.37967835e-002, 3.82210426e-002, 5.74732497e-002,
          6.75580874e-002, 4.82571572e-002, 8.11422616e-002,
          6.92455396e-002, 7.11331964e-002, 7.27861971e-002,
          7.36015365e-002, 8.26516598e-002, 1.89845264e-001,
          2.27191612e-001, 1.59733295e-001, 1.54640406e-001,
          1.34387404e-001, 8.53052139e-002, 8.69131684e-002,
          7.72266611e-002 ]
      - [ 2.00285077e-001, 1.29709333e-001, 9.78987440e-002,
          1.13339439e-001, 1.25188917e-001, 1.37688696e-001,
          2.45158181e-001, 1.20364808e-001, 1.11362532e-001,
          8.95721018e-002, 8.79368037e-002, 9.52220857e-002,
          8.03902522e-002, 9.06412303e-002, 2.54304647e-001,
          2.81168163e-001, 1.47281587e-001, 8.38743076e-002,
          1.08989537e-001, 1.00182697e-001, 1.67821601e-001,
          1.81955546e-001, 7.48406649e-002, 7.12816566e-002,
          5.42412587e-002, 5.21916673e-002, 5.83290458e-002,
          9.19214636e-002, 1.65647358e-001, 2.59866714e-001,
          1.62893653e-001, 1.34416461e-001, 1.93408921e-001,
          2.60350287e-001, 2.03868046e-001, 1.20815232e-001,
          1.50015816e-001, 1.33742422e-001, 1.78049043e-001,
          2.35042274e-001, 2.61607975e-001, 2.46693462e-001,
          1.16416574e-001, 5.09146079e-002, 5.37405275e-002,
          2.99595501e-002, 4.10710834e-002, 8.02850425e-002,
          6.90954924e-002, 4.17855494e-002, 8.16002712e-002,
          7.05557838e-002, 7.73713514e-002, 6.11295253e-002,
          7.67641142e-002, 9.04800445e-002, 1.89828575e-001,
          2.20552370e-001, 1.58037022e-001, 1.48869336e-001,
          1.34784743e-001, 8.41585696e-002, 8.92584994e-002,
          7.05222189e-002 ]
      - [ 1.91324428e-001, 1.41439900e-001, 1.08866729e-001,
          1.12627409e-001, 1.35244191e-001, 1.24268517e-001,
          2.56806314e-001, 1.02323763e-001, 1.00118257e-001,
          8.05579498e-002, 7.32138082e-002, 9.84419361e-002,
          1.04017235e-001, 9.97397155e-002, 2.65951514e-001,
          2.67128915e-001, 1.42470211e-001, 8.44917372e-002,
          1.08774304e-001, 9.72176790e-002, 1.54072359e-001,
          1.95626646e-001, 6.44178838e-002, 7.44317845e-002,
          4.58767898e-002, 5.17081060e-002, 6.07050173e-002,
          8.47414359e-002, 1.60731792e-001, 2.62034088e-001,
          1.69096470e-001, 1.43478557e-001, 2.00834289e-001,
          2.60538876e-001, 2.00999901e-001, 1.25035271e-001,
          1.36301562e-001, 1.47779554e-001, 1.49225578e-001,
          2.59663075e-001, 2.55893111e-001, 2.50323445e-001,
          1.20439723e-001, 4.89959568e-002, 5.13997488e-002,
          3.28271873e-002, 3.87317091e-002, 5.43950014e-002,
          6.63149133e-002, 4.76059951e-002, 7.70193338e-002,
          7.37551600e-002, 7.22375736e-002, 6.85103536e-002,
          7.79747963e-002, 9.70147774e-002, 1.75165281e-001,
          2.33839214e-001, 1.57148600e-001, 1.55631408e-001,
          1.30650625e-001, 9.05959830e-002, 8.41204226e-002,
          7.43746608e-002 ]
      - [ 1.89393744e-001, 1.25491038e-001, 8.06950629e-002,
          9.97357816e-002, 1.13546811e-001, 1.11440517e-001,
          2.56692588e-001, 9.61854234e-002, 7.66460374e-002,
          5.35358675e-002, 4.77775782e-002, 5.96503951e-002,
          7.99487233e-002, 8.42245296e-002, 2.64095366e-001,
          2.67471641e-001, 1.47822171e-001, 8.61953199e-002,
          1.12307444e-001, 9.76505876e-002, 1.60361663e-001,
          1.93381995e-001, 7.39536062e-002, 6.46912977e-002,
          5.77987060e-002, 5.07721789e-002, 6.43599257e-002,
          8.85949135e-002, 1.66875541e-001, 2.58262157e-001,
          1.82650536e-001, 1.29111156e-001, 2.17085332e-001,
          2.58838356e-001, 2.01650545e-001, 1.09662630e-001,
          1.42269656e-001, 1.40143290e-001, 1.67976364e-001,
          2.38668665e-001, 2.75798202e-001, 2.55161464e-001,
          1.20184615e-001, 5.43160364e-002, 5.12150377e-002,
          3.60045284e-002, 4.03286628e-002, 6.09229691e-002,
          6.87301829e-002, 4.68409471e-002, 7.02414289e-002,
          7.19932169e-002, 7.79255852e-002, 7.28676617e-002,
          7.17350468e-002, 1.02349713e-001, 1.78787410e-001,
          2.31705323e-001, 1.58150554e-001, 1.53216064e-001,
          1.32659495e-001, 8.69912580e-002, 8.39070305e-002,
          7.51577020e-002 ]
      - [ 1.91526324e-001, 1.17559038e-001, 7.99630657e-002,
          9.53368768e-002, 1.04946248e-001, 1.09264821e-001,
          2.51645654e-001, 1.02543838e-001, 6.66905418e-002,
          5.48251681e-002, 4.88117933e-002, 4.69466485e-002,
          6.97844252e-002, 6.68579638e-002, 2.50974536e-001,
          2.72956014e-001, 1.49812937e-001, 8.70849714e-002,
          1.15316078e-001, 9.37134251e-002, 1.60497874e-001,
          1.92967579e-001, 7.87509978e-002, 6.48844615e-002,
          4.44589555e-002, 5.30317686e-002, 6.12157248e-002,
          8.79930779e-002, 1.63998872e-001, 2.62475759e-001,
          1.74866736e-001, 1.26845852e-001, 2.00685933e-001,
          2.72087783e-001, 2.04100460e-001, 1.08720750e-001,
          1.37959421e-001, 1.48069426e-001, 1.66654840e-001,
          2.52214074e-001, 2.65010595e-001, 2.50221461e-001,
          1.20733462e-001, 5.91700226e-002, 5.18463738e-002,
          3.55336331e-002, 3.92013863e-002, 6.92753345e-002,
          7.58095831e-002, 4.57359813e-002, 7.86358267e-002,
          7.26431608e-002, 7.15696737e-002, 7.46364668e-002,
          7.33518749e-002, 9.40083116e-002, 1.94102481e-001,
          2.25680247e-001, 1.53675541e-001, 1.54160351e-001,
          1.38659537e-001, 8.60751048e-002, 8.82512480e-002,
          7.26002976e-002 ]
      - [ 1.75655931e-001, 1.23964988e-001, 1.11448765e-001,
          1.02839492e-001, 1.05789177e-001, 1.07654981e-001,
          2.31776103e-001, 1.27858579e-001, 9.77593288e-002,
          7.86016881e-002, 7.15290830e-002, 7.62521923e-002,
          9.77232754e-002, 8.17007646e-002, 2.13996142e-001,
          2.65605986e-001, 1.35239869e-001, 9.08485875e-002,
          1.06661707e-001, 1.03828624e-001, 1.38491541e-001,
          1.65608495e-001, 7.51998425e-002, 4.68926132e-002,
          4.91794534e-002, 5.31041771e-002, 6.23930618e-002,
          8.97456780e-002, 1.47782624e-001, 2.29543209e-001,
          1.74836159e-001, 1.29201725e-001, 2.19458520e-001,
          2.40262046e-001, 1.16276748e-001, 8.59274417e-002,
          1.13159940e-001, 1.15912385e-001, 1.66536212e-001,
          2.32005060e-001, 2.52810180e-001, 1.93958685e-001,
          6.34583682e-002, 3.32022272e-002, 4.07236740e-002,
          2.44957730e-002, 4.51617204e-002, 6.70700371e-002,
          5.55801690e-002, 1.05309628e-001, 9.48857889e-002,
          4.44184877e-002, 8.44545960e-002, 7.04564601e-002,
          7.46071637e-002, 9.27840918e-002, 1.86098784e-001,
          2.38763124e-001, 1.37645200e-001, 1.25326946e-001,
          1.20295160e-001, 7.79736415e-002, 8.06634501e-002,
          7.08215535e-002 ]
      - [ 1.56328321e-001, 1.05698481e-001, 1.02495097e-001,
          9.73349363e-002, 8.98277834e-002, 9.49531943e-002,
          2.33302221e-001, 1.15207963e-001, 7.62697458e-002,
          5.34343049e-002, 5.15129343e-002, 5.01621217e-002,
          5.39145507e-002, 7.20392317e-002, 2.19516218e-001,
          2.71277785e-001, 1.40255466e-001, 7.57851824e-002,
          1.12197645e-001, 9.48368832e-002, 1.40152663e-001,
          1.66256040e-001, 8.52338299e-002, 5.36868088e-002,
          4.70563285e-002, 5.57087734e-002, 5.84552065e-002,
          8.93759280e-002, 1.46732166e-001, 2.42023021e-001,
          1.55600637e-001, 1.29361168e-001, 2.21192703e-001,
          2.40675300e-001, 1.21518560e-001, 9.47745144e-002,
          1.07908934e-001, 1.21699758e-001, 1.57633603e-001,
          2.36279756e-001, 2.59635508e-001, 1.94081753e-001,
          7.03887418e-002, 3.89408618e-002, 4.34500873e-002,
          2.55628750e-002, 3.27352732e-002, 6.05091490e-002,
          5.54135665e-002, 1.04477614e-001, 8.18104595e-002,
          4.94557917e-002, 7.65333623e-002, 7.85718858e-002,
          7.45162368e-002, 9.91828144e-002, 1.86941713e-001,
          2.27978066e-001, 1.41461059e-001, 1.21956445e-001,
          1.20345414e-001, 7.69967511e-002, 8.23310539e-002,
          6.80700019e-002 ]
      - [ 1.58850789e-001, 1.01755485e-001, 9.76735502e-002,
          1.01825647e-001, 7.72957653e-002, 9.54434574e-002,
          2.32521176e-001, 1.19820580e-001, 7.04301521e-002,
          5.31678163e-002, 4.81908731e-002, 4.93264310e-002,
          6.57405481e-002, 6.50376454e-002, 2.15673134e-001,
          2.69712359e-001, 1.37113065e-001, 8.35431591e-002,
          1.00106351e-001, 9.67406631e-002, 1.46599039e-001,
          1.69204235e-001, 7.27783218e-002, 4.36040536e-002,
          4.12362292e-002, 5.11706024e-002, 5.86094894e-002,
          8.86660293e-002, 1.43932313e-001, 2.35730439e-001,
          1.63108930e-001, 1.30692169e-001, 2.22843185e-001,
          2.37942427e-001, 1.21166646e-001, 9.09624472e-002,
          1.04825743e-001, 1.13505162e-001, 1.54361427e-001,
          2.46686697e-001, 2.49880165e-001, 2.06845611e-001,
          6.55159280e-002, 3.79840583e-002, 4.23461683e-002,
          3.44410948e-002, 3.46412435e-002, 7.56411031e-002,
          5.97677603e-002, 9.23541561e-002, 8.56650770e-002,
          4.85926867e-002, 7.39899725e-002, 7.73203969e-002,
          7.84511715e-002, 1.01384610e-001, 1.75841570e-001,
          2.29946941e-001, 1.38547182e-001, 1.25091389e-001,
          1.24304011e-001, 7.94792250e-002, 7.88239315e-002,
          6.79512247e-002 ]
      - [ 2.24933311e-001, 2.09912896e-001, 1.36595011e-001,
          2.32774928e-001, 3.30461711e-001, 2.15618059e-001,
          1.05972372e-001, 9.22134742e-002, 1.13064788e-001,
          1.10274911e-001, 1.12199172e-001, 1.88447267e-001,
          1.55748427e-001, 1.26354516e-001, 2.10165158e-001,
          1.96799845e-001, 1.39306948e-001, 8.88187364e-002,
          9.00466517e-002, 9.08565596e-002, 7.54368454e-002,
          9.86992121e-002, 9.68069509e-002, 5.83695807e-002,
          6.64170310e-002, 6.64481968e-002, 8.81128535e-002,
          1.40731812e-001, 2.47404546e-001, 2.69383073e-001,
          2.04761505e-001, 1.36312485e-001, 1.26155883e-001,
          1.03909716e-001, 2.00036526e-001, 3.06601256e-001,
          2.83510566e-001, 1.94151536e-001, 2.10574657e-001,
          1.68326393e-001, 2.22697914e-001, 2.01379538e-001,
          1.66312873e-001, 1.74294710e-001, 1.62419781e-001,
          1.27230957e-001, 9.15403217e-002, 1.09233513e-001,
          7.22483322e-002, 7.92448521e-002, 1.11389153e-001,
          1.16935752e-001, 1.04311712e-001, 8.89990628e-002,
          9.55590829e-002, 1.43419057e-001, 2.00628817e-001,
          2.15335190e-001, 2.06368133e-001, 2.82516301e-001,
          1.75046816e-001, 1.18914068e-001, 9.07927081e-002,
          7.65532255e-002 ]
      - [ 2.49024153e-001, 1.78122729e-001, 1.46318242e-001,
          2.37771735e-001, 3.32355589e-001, 2.17390299e-001,
          1.20671555e-001, 9.08802673e-002, 1.14596024e-001,
          1.13229185e-001, 1.10911720e-001, 1.90296441e-001,
          1.55366212e-001, 1.29187241e-001, 1.92298695e-001,
          2.05187917e-001, 1.44248977e-001, 1.08985387e-001,
          1.08767666e-001, 8.52364525e-002, 6.40315041e-002,
          7.57329762e-002, 1.10711232e-001, 5.98038509e-002,
          5.38999587e-002, 6.99224472e-002, 9.74681601e-002,
          1.32153511e-001, 2.66514570e-001, 2.50155360e-001,
          2.21419916e-001, 1.25164643e-001, 1.27500549e-001,
          1.11636706e-001, 2.00947106e-001, 3.17379713e-001,
          2.82489628e-001, 2.05529958e-001, 2.06051663e-001,
          1.69749558e-001, 2.11427405e-001, 2.06638277e-001,
          1.64376825e-001, 1.79390520e-001, 1.62399724e-001,
          1.28435761e-001, 9.28802863e-002, 1.15562230e-001,
          7.29735494e-002, 7.46549368e-002, 7.22986162e-002,
          1.05678231e-001, 1.07730813e-001, 9.51455012e-002,
          1.13569349e-001, 1.41477987e-001, 1.94628537e-001,
          2.18399912e-001, 2.19967842e-001, 2.60723948e-001,
          1.91118836e-001, 1.09237276e-001, 1.04391746e-001,
          9.42077264e-002 ]
      - [ 2.58297235e-001, 1.78602666e-001, 1.49938479e-001,
          2.35613361e-001, 3.22052419e-001, 2.04434901e-001,
          1.29460379e-001, 8.80861729e-002, 1.18035629e-001,
          1.11090764e-001, 1.05598077e-001, 1.89793080e-001,
          1.51209101e-001, 1.29001305e-001, 1.92378581e-001,
          2.13510171e-001, 1.47908628e-001, 9.99892056e-002,
          8.66169408e-002, 6.92169815e-002, 9.85039026e-002,
          9.01038572e-002, 9.80010554e-002, 6.27139360e-002,
          5.52941486e-002, 4.94553782e-002, 9.91692841e-002,
          1.46655813e-001, 2.53662527e-001, 2.55341798e-001,
          2.06215292e-001, 1.42123625e-001, 1.25776142e-001,
          1.04034610e-001, 1.99224800e-001, 3.14561814e-001,
          2.75543034e-001, 2.04852581e-001, 1.97586417e-001,
          1.87293917e-001, 2.09524155e-001, 2.04011291e-001,
          1.58240706e-001, 1.79413453e-001, 1.56915829e-001,
          1.24459960e-001, 9.77731943e-002, 1.10176302e-001,
          7.57250637e-002, 8.88549834e-002, 7.84481913e-002,
          1.01797298e-001, 1.20727986e-001, 1.05090909e-001,
          9.40602422e-002, 1.46942139e-001, 1.99925497e-001,
          2.14415878e-001, 2.02340007e-001, 2.74001241e-001,
          1.88891664e-001, 1.18881181e-001, 1.04583889e-001,
          7.34348297e-002 ]
      - [ 2.60439038e-001, 1.72309384e-001, 1.55349597e-001,
          2.32996225e-001, 3.14817935e-001, 2.20817447e-001,
          1.24270439e-001, 9.19693261e-002, 1.18288830e-001,
          1.10687844e-001, 1.11240178e-001, 1.90177172e-001,
          1.49869323e-001, 1.27148896e-001, 1.98135972e-001,
          1.94120660e-001, 1.48911059e-001, 8.86745006e-002,
          1.01579338e-001, 1.02981232e-001, 8.42705071e-002,
          7.57041126e-002, 8.11407641e-002, 7.18094260e-002,
          4.62531485e-002, 5.93304224e-002, 1.04907393e-001,
          1.44103870e-001, 2.51495898e-001, 2.61438131e-001,
          2.03069136e-001, 1.36758864e-001, 1.28530741e-001,
          1.04003839e-001, 2.13488638e-001, 3.09377968e-001,
          2.77425140e-001, 2.02338442e-001, 2.01546296e-001,
          2.00277030e-001, 2.06606552e-001, 2.04671696e-001,
          1.63304046e-001, 1.80762678e-001, 1.56636804e-001,
          1.28138840e-001, 9.57685709e-002, 1.10983670e-001,
          7.12073073e-002, 7.17779323e-002, 8.54197294e-002,
          1.03407770e-001, 1.00995056e-001, 7.60889947e-002,
          9.86645296e-002, 1.61249340e-001, 1.91182762e-001,
          2.06527844e-001, 2.13772833e-001, 2.67578572e-001,
          1.62308916e-001, 1.22752808e-001, 9.81848985e-002,
          6.76567852e-002 ]
      - [ 2.52693862e-001, 1.81006953e-001, 1.50402889e-001,
          2.36543193e-001, 3.24347138e-001, 2.00659290e-001,
          1.37819588e-001, 9.42236781e-002, 1.15693793e-001,
          1.13241404e-001, 1.10684663e-001, 1.89601794e-001,
          1.53559446e-001, 1.25015989e-001, 1.96368933e-001,
          1.97948590e-001, 1.51379511e-001, 1.07609533e-001,
          8.41261894e-002, 8.48933235e-002, 8.28780010e-002,
          8.96826163e-002, 9.62193310e-002, 7.00714067e-002,
          5.61881401e-002, 7.01525956e-002, 9.11586210e-002,
          1.33295372e-001, 2.65980482e-001, 2.60877997e-001,
          2.02632144e-001, 1.38471559e-001, 1.26472741e-001,
          1.00247867e-001, 1.90480575e-001, 3.14752996e-001,
          2.78438777e-001, 2.03422502e-001, 1.98226899e-001,
          1.83426067e-001, 2.23636836e-001, 2.07492098e-001,
          1.60777405e-001, 1.73857868e-001, 1.59020990e-001,
          1.24289334e-001, 9.06458795e-002, 1.16242208e-001,
          8.22876021e-002, 8.27717185e-002, 7.87041858e-002,
          1.00763939e-001, 9.19703022e-002, 9.79867801e-002,
          9.85886008e-002, 1.56740829e-001, 2.09215239e-001,
          2.13213101e-001, 2.08007172e-001, 2.66121984e-001,
          1.74812093e-001, 1.17940687e-001, 9.66480225e-002,
          8.80398303e-002 ]
      - [ 2.63377696e-001, 1.68923587e-001, 1.50156334e-001,
          2.35398039e-001, 3.07206661e-001, 2.22647175e-001,
          1.19144887e-001, 8.92211944e-002, 1.12904206e-001,
          1.12667277e-001, 1.11333191e-001, 1.83606237e-001,
          1.50943637e-001, 1.26964986e-001, 1.90460533e-001,
          2.04218343e-001, 1.36855811e-001, 9.81957614e-002,
          1.10488579e-001, 1.20057881e-001, 8.81500393e-002,
          7.51210228e-002, 1.04607634e-001, 6.68770820e-002,
          4.98895422e-002, 7.68147036e-002, 1.06285796e-001,
          1.60332337e-001, 2.64041483e-001, 2.43217841e-001,
          2.12999582e-001, 1.38933927e-001, 1.22140467e-001,
          1.01533659e-001, 1.92159772e-001, 3.03723902e-001,
          2.81590343e-001, 1.96008861e-001, 2.02521682e-001,
          1.81379721e-001, 2.19346583e-001, 2.00113580e-001,
          1.56723946e-001, 1.73726112e-001, 1.55850142e-001,
          1.24266818e-001, 9.68956128e-002, 1.04971215e-001,
          8.63340423e-002, 8.84940177e-002, 9.52141583e-002,
          1.09536722e-001, 1.10776961e-001, 9.66588259e-002,
          9.03575942e-002, 1.46063104e-001, 2.07992047e-001,
          2.16283590e-001, 2.13985264e-001, 2.68899858e-001,
          1.79410636e-001, 1.15642287e-001, 1.10612012e-001,
          8.58706757e-002 ]
      - [ 2.45067880e-001, 1.86424375e-001, 1.49677202e-001,
          2.22515389e-001, 3.14142197e-001, 2.09967956e-001,
          1.17790379e-001, 9.32870582e-002, 1.12421952e-001,
          1.07544437e-001, 1.10942826e-001, 1.82993770e-001,
          1.46283358e-001, 1.20046586e-001, 2.06701383e-001,
          2.02584475e-001, 1.44839570e-001, 8.59898031e-002,
          9.65490863e-002, 8.55954364e-002, 1.23803943e-001,
          1.02747396e-001, 9.46705118e-002, 6.74964190e-002,
          6.94846138e-002, 8.92171264e-002, 9.85824764e-002,
          1.36547133e-001, 2.49804839e-001, 2.68844247e-001,
          2.10802510e-001, 1.23124838e-001, 1.29355252e-001,
          9.96544361e-002, 2.08156109e-001, 2.91488349e-001,
          2.87242740e-001, 1.89851671e-001, 1.93334326e-001,
          1.80480689e-001, 2.19542071e-001, 1.99436486e-001,
          1.61953464e-001, 1.72299176e-001, 1.52801201e-001,
          1.23831347e-001, 9.33173597e-002, 1.10945664e-001,
          6.51564598e-002, 8.15346986e-002, 8.39646235e-002,
          1.12140089e-001, 1.23487428e-001, 9.39003453e-002,
          9.49689597e-002, 1.69856474e-001, 1.94788828e-001,
          1.92464650e-001, 2.05978930e-001, 2.74783999e-001,
          1.76184937e-001, 1.33264974e-001, 1.15847319e-001,
          8.61100554e-002 ]
      - [ 2.52565920e-001, 1.82049066e-001, 1.41227543e-001,
          2.29158878e-001, 3.12743217e-001, 2.08015248e-001,
          1.26458228e-001, 9.29948837e-002, 1.16551854e-001,
          1.06822200e-001, 1.08991392e-001, 1.89815998e-001,
          1.49322525e-001, 1.24571256e-001, 1.87175617e-001,
          1.95272222e-001, 1.39429882e-001, 8.99614096e-002,
          9.19062421e-002, 1.23821221e-001, 9.47993547e-002,
          9.48988795e-002, 9.59470198e-002, 4.60605025e-002,
          5.82691319e-002, 5.03861792e-002, 8.87347385e-002,
          1.63914353e-001, 2.44956687e-001, 2.77572542e-001,
          2.00973138e-001, 1.21886082e-001, 1.26313850e-001,
          9.92284045e-002, 2.00174972e-001, 3.11515838e-001,
          2.71030903e-001, 1.96670935e-001, 2.04149142e-001,
          1.70831442e-001, 2.22582936e-001, 2.06182599e-001,
          1.64182246e-001, 1.72759682e-001, 1.53740406e-001,
          1.26380399e-001, 9.43967998e-002, 1.13220058e-001,
          8.64529908e-002, 7.64410868e-002, 8.67458805e-002,
          1.05299339e-001, 1.10392161e-001, 8.06092992e-002,
          9.41808298e-002, 1.56076744e-001, 2.08940789e-001,
          2.11218044e-001, 2.03024670e-001, 2.58043021e-001,
          1.71997190e-001, 1.14894003e-001, 1.03825174e-001,
          8.25843886e-002 ]
      - [ 2.53155351e-001, 1.95507318e-001, 1.36546403e-001,
          2.31833205e-001, 3.24570000e-001, 2.01432988e-001,
          1.23972721e-001, 9.63035822e-002, 1.15852363e-001,
          1.09819502e-001, 1.08341105e-001, 1.89192250e-001,
          1.52233630e-001, 1.25763550e-001, 2.05219656e-001,
          1.85467929e-001, 1.22492336e-001, 9.11397189e-002,
          1.08048514e-001, 1.09026209e-001, 8.89182389e-002,
          7.55264685e-002, 1.29212886e-001, 5.08098379e-002,
          5.36526702e-002, 4.37666327e-002, 9.38205123e-002,
          1.35178611e-001, 2.51888782e-001, 2.77263701e-001,
          2.11923465e-001, 1.23637624e-001, 1.24020368e-001,
          1.05935045e-001, 2.00434729e-001, 3.00597727e-001,
          2.85069317e-001, 1.97030008e-001, 1.92605734e-001,
          1.92899823e-001, 2.04411104e-001, 2.00450778e-001,
          1.60976171e-001, 1.75182179e-001, 1.58866256e-001,
          1.25220865e-001, 9.29932371e-002, 1.08291052e-001,
          9.33634937e-002, 8.43765363e-002, 9.92938951e-002,
          1.09967008e-001, 1.02389067e-001, 1.05927132e-001,
          8.92191753e-002, 1.47513449e-001, 2.13919818e-001,
          2.11309761e-001, 2.18322650e-001, 2.59287536e-001,
          1.73154533e-001, 1.29836172e-001, 1.09382853e-001,
          8.68159533e-002 ]
      - [ 2.42950708e-001, 2.03922451e-001, 1.38346672e-001,
          2.22169831e-001, 3.17267567e-001, 2.14982659e-001,
          1.24717720e-001, 9.63513106e-002, 1.12184033e-001,
          1.06617339e-001, 1.12591445e-001, 1.87669978e-001,
          1.50719583e-001, 1.24039561e-001, 2.01428205e-001,
          1.97401151e-001, 1.31186038e-001, 8.16298500e-002,
          1.07738875e-001, 9.82860699e-002, 1.00445434e-001,
          9.67515931e-002, 9.85196754e-002, 5.89746051e-002,
          5.30336499e-002, 6.87446818e-002, 9.96703655e-002,
          1.56348109e-001, 2.36822128e-001, 2.78606623e-001,
          2.06380218e-001, 1.38300031e-001, 1.27219409e-001,
          1.02201149e-001, 2.03562975e-001, 2.96096474e-001,
          2.85593599e-001, 2.04164654e-001, 1.87487975e-001,
          1.92725241e-001, 2.15914711e-001, 1.99467212e-001,
          1.65037408e-001, 1.73754498e-001, 1.56174168e-001,
          1.26295581e-001, 9.30701792e-002, 1.11045793e-001,
          8.61643702e-002, 8.86512920e-002, 8.06548595e-002,
          1.09609187e-001, 9.09496173e-002, 8.07154849e-002,
          8.57637301e-002, 1.47871897e-001, 2.01933458e-001,
          2.18503967e-001, 2.10349217e-001, 2.65265822e-001,
          1.67555973e-001, 1.03452280e-001, 1.00261047e-001,
          8.52097720e-002 ]
      - [ 2.44856521e-001, 1.66102707e-001, 1.73297048e-001,
          2.29373842e-001, 3.18111718e-001, 2.18802288e-001,
          1.27984717e-001, 9.20538753e-002, 1.08785465e-001,
          1.05801553e-001, 1.10287748e-001, 1.85705364e-001,
          1.59930706e-001, 1.36611462e-001, 1.99881554e-001,
          2.04187840e-001, 1.14234895e-001, 8.85404199e-002,
          1.20936602e-001, 1.18256874e-001, 9.31609720e-002,
          9.63296071e-002, 9.90026742e-002, 9.21792686e-002,
          5.22186346e-002, 6.50793910e-002, 9.73625630e-002,
          1.38243631e-001, 2.46335775e-001, 2.82994419e-001,
          2.12434202e-001, 1.14731841e-001, 1.26351655e-001,
          1.03877217e-001, 1.99273348e-001, 2.99534947e-001,
          2.82751411e-001, 2.00669646e-001, 1.88672721e-001,
          1.83105618e-001, 2.00114191e-001, 2.00255305e-001,
          1.63540065e-001, 1.71438292e-001, 1.63227588e-001,
          1.19975649e-001, 9.14089382e-002, 1.11041754e-001,
          9.39741954e-002, 8.40806067e-002, 1.00726269e-001,
          1.22841135e-001, 1.16586000e-001, 8.86375159e-002,
          9.35004056e-002, 1.37228742e-001, 2.03505605e-001,
          2.22591266e-001, 2.04694599e-001, 2.68692702e-001,
          1.84422821e-001, 1.11487590e-001, 1.02475718e-001,
          8.65809917e-002 ]
      - [ 2.27647170e-001, 1.81666255e-001, 1.75734848e-001,
          2.43724376e-001, 3.18901241e-001, 2.15270355e-001,
          1.29081562e-001, 9.30921063e-002, 1.15339123e-001,
          1.11214347e-001, 1.13512278e-001, 1.92292407e-001,
          1.55855089e-001, 1.28369302e-001, 2.10145697e-001,
          2.05463588e-001, 1.20873027e-001, 8.61099213e-002,
          1.05791532e-001, 8.03064853e-002, 7.97653943e-002,
          8.77524093e-002, 9.05502141e-002, 6.23940639e-002,
          6.05792515e-002, 5.67301959e-002, 8.33986700e-002,
          1.45194486e-001, 2.44216084e-001, 2.65632063e-001,
          2.23127738e-001, 1.32770360e-001, 1.28451541e-001,
          1.12787642e-001, 2.07234696e-001, 3.06301743e-001,
          2.81976223e-001, 2.13004827e-001, 2.00153381e-001,
          1.78781584e-001, 2.15508699e-001, 2.16842964e-001,
          1.65688172e-001, 1.71706244e-001, 1.65502131e-001,
          1.25704899e-001, 9.21280310e-002, 1.14837751e-001,
          8.32294375e-002, 7.69460127e-002, 8.03519487e-002,
          8.50150809e-002, 8.70626569e-002, 8.64672214e-002,
          9.41434130e-002, 1.49785727e-001, 1.99189410e-001,
          2.18220964e-001, 2.08079383e-001, 2.60787398e-001,
          1.62964374e-001, 1.09833650e-001, 1.00342207e-001,
          7.46969283e-002 ]
      - [ 2.46849716e-001, 1.78440124e-001, 1.58901945e-001,
          2.30895862e-001, 3.25004905e-001, 2.01586291e-001,
          1.27834201e-001, 9.71477851e-002, 1.19999088e-001,
          1.09319635e-001, 1.17266826e-001, 1.85693160e-001,
          1.55212358e-001, 1.26647502e-001, 1.94833860e-001,
          1.92588434e-001, 1.33383721e-001, 9.35897082e-002,
          1.03289828e-001, 1.06984243e-001, 8.15896168e-002,
          8.87826458e-002, 9.15077478e-002, 7.23386109e-002,
          5.53507209e-002, 6.34986311e-002, 9.77817550e-002,
          1.48185626e-001, 2.47313291e-001, 2.65568376e-001,
          2.05509394e-001, 1.18716963e-001, 1.32143021e-001,
          9.81719568e-002, 1.95370778e-001, 3.13021392e-001,
          2.73607343e-001, 2.00770602e-001, 1.93052381e-001,
          1.85904473e-001, 2.16790050e-001, 2.00913623e-001,
          1.61492079e-001, 1.72027618e-001, 1.61075979e-001,
          1.20754212e-001, 9.43423733e-002, 1.12752400e-001,
          9.43626985e-002, 8.29044282e-002, 1.01621084e-001,
          1.22703031e-001, 1.36707813e-001, 1.01707548e-001,
          1.06266417e-001, 1.47750720e-001, 2.02686921e-001,
          2.11844847e-001, 2.07665965e-001, 2.75145352e-001,
          1.91678926e-001, 1.28371254e-001, 1.09738529e-001,
          8.64784941e-002 ]
      - [ 2.42927641e-001, 1.81800127e-001, 1.62855953e-001,
          2.26289928e-001, 3.31141382e-001, 2.10016251e-001,
          1.23881400e-001, 9.73629802e-002, 1.15974545e-001,
          1.13349222e-001, 1.08971186e-001, 1.92967623e-001,
          1.52087823e-001, 1.26395136e-001, 2.04706475e-001,
          2.06521302e-001, 1.31775275e-001, 9.24606100e-002,
          1.11993417e-001, 9.90346670e-002, 7.50395209e-002,
          8.27763230e-002, 8.18296075e-002, 5.97492419e-002,
          4.11272384e-002, 4.96383384e-002, 9.09225717e-002,
          1.59298509e-001, 2.44484589e-001, 2.73294777e-001,
          1.96899861e-001, 1.20355003e-001, 1.28503367e-001,
          1.04509704e-001, 2.00325742e-001, 3.07834804e-001,
          2.90689647e-001, 1.94139838e-001, 2.07171470e-001,
          1.87240809e-001, 2.12682232e-001, 2.03320161e-001,
          1.66150138e-001, 1.77500904e-001, 1.58999324e-001,
          1.28424689e-001, 9.24239606e-002, 1.09987266e-001,
          7.02857077e-002, 7.19535723e-002, 8.37928876e-002,
          1.12058930e-001, 1.17312446e-001, 1.00495085e-001,
          1.05006531e-001, 1.47977620e-001, 2.00524852e-001,
          2.12166399e-001, 2.08226919e-001, 2.68973142e-001,
          1.94520369e-001, 1.18853584e-001, 1.11622795e-001,
          8.03504959e-002 ]
      - [ 2.30954051e-001, 1.78509548e-001, 1.82554990e-001,
          2.25592852e-001, 3.36025596e-001, 2.08056331e-001,
          1.22259431e-001, 9.37813222e-002, 1.18761703e-001,
          1.09302841e-001, 1.14110783e-001, 1.91556767e-001,
          1.54555261e-001, 1.30340666e-001, 2.04941168e-001,
          2.13027090e-001, 1.24892309e-001, 9.42247063e-002,
          8.95926729e-002, 8.30846876e-002, 7.73993507e-002,
          8.82082433e-002, 1.02998890e-001, 8.11385140e-002,
          5.39041609e-002, 6.87922314e-002, 9.66372937e-002,
          1.22713372e-001, 2.39656761e-001, 2.81203687e-001,
          2.21160531e-001, 1.25364989e-001, 1.27095774e-001,
          1.00374915e-001, 2.03852415e-001, 3.16585511e-001,
          2.91130155e-001, 1.98395684e-001, 2.02802241e-001,
          1.61815971e-001, 2.15856284e-001, 2.09166169e-001,
          1.63263604e-001, 1.76639602e-001, 1.63731068e-001,
          1.28904000e-001, 9.24100429e-002, 1.12703793e-001,
          9.07752961e-002, 9.99012440e-002, 9.82100666e-002,
          1.03805862e-001, 8.72686207e-002, 8.48035812e-002,
          9.20421183e-002, 1.51738420e-001, 2.13556901e-001,
          2.14268446e-001, 2.16010526e-001, 2.65133142e-001,
          1.71792775e-001, 1.19355142e-001, 1.09316736e-001,
          9.61353108e-002 ]
      - [ 2.57993937e-001, 1.75751299e-001, 1.70511231e-001,
          2.45732158e-001, 3.28990519e-001, 2.07936749e-001,
          1.31483451e-001, 1.03561781e-001, 1.18880965e-001,
          1.07423767e-001, 1.14372052e-001, 1.94860235e-001,
          1.59551337e-001, 1.26969531e-001, 2.01808006e-001,
          2.10068837e-001, 1.29333720e-001, 7.35357925e-002,
          7.82487690e-002, 9.26659033e-002, 7.06066340e-002,
          7.21012279e-002, 1.09058492e-001, 6.45965859e-002,
          4.72028330e-002, 5.43421097e-002, 7.59611651e-002,
          1.23421662e-001, 2.41737410e-001, 2.80133814e-001,
          2.19108954e-001, 1.33878231e-001, 1.26971453e-001,
          9.82552767e-002, 2.03164428e-001, 3.30359846e-001,
          2.69430906e-001, 2.02113450e-001, 2.07053244e-001,
          1.82019562e-001, 2.13276267e-001, 2.10163563e-001,
          1.66940600e-001, 1.76733330e-001, 1.60674497e-001,
          1.27707392e-001, 9.64900404e-002, 1.09782800e-001,
          8.07780474e-002, 7.68862367e-002, 8.03160965e-002,
          1.02216803e-001, 9.22452882e-002, 7.85348043e-002,
          9.66126397e-002, 1.55283630e-001, 2.06914827e-001,
          2.19003379e-001, 2.03382149e-001, 2.75839716e-001,
          1.65084362e-001, 1.18834108e-001, 1.00157470e-001,
          7.75632113e-002 ]
      - [ 2.57551998e-001, 1.67109817e-001, 1.76439762e-001,
          2.24827439e-001, 3.23548138e-001, 2.16473192e-001,
          1.32291168e-001, 8.88322368e-002, 1.15460247e-001,
          1.06882043e-001, 1.10903487e-001, 1.90228313e-001,
          1.54672638e-001, 1.23383269e-001, 2.01343879e-001,
          1.84769064e-001, 1.24385163e-001, 8.03153887e-002,
          7.91509077e-002, 1.05404668e-001, 9.49043781e-002,
          9.43542495e-002, 1.23381011e-001, 6.41064793e-002,
          5.74166998e-002, 5.11797406e-002, 7.61888921e-002,
          1.27463058e-001, 2.53658414e-001, 2.79004335e-001,
          2.22828507e-001, 1.07850686e-001, 1.30028844e-001,
          1.07469119e-001, 1.95379615e-001, 3.09460163e-001,
          2.89781421e-001, 2.01694608e-001, 1.85316980e-001,
          1.77354664e-001, 2.18396410e-001, 2.06042096e-001,
          1.65984541e-001, 1.74177691e-001, 1.60379767e-001,
          1.24055356e-001, 9.10335109e-002, 1.17532797e-001,
          6.86446205e-002, 9.75577235e-002, 9.13337395e-002,
          9.87579748e-002, 1.14944018e-001, 8.91126618e-002,
          1.03083089e-001, 1.55973703e-001, 1.92826912e-001,
          2.09153548e-001, 2.05561236e-001, 2.65737385e-001,
          1.94475979e-001, 1.21005669e-001, 1.01309612e-001,
          7.91283399e-002 ]
      - [ 2.24266529e-001, 1.94054455e-001, 1.61014229e-001,
          2.39261970e-001, 3.18148166e-001, 2.13136300e-001,
          1.32235765e-001, 9.29136649e-002, 1.19383059e-001,
          1.12073913e-001, 1.14742577e-001, 1.89293891e-001,
          1.55188307e-001, 1.28298819e-001, 2.05550909e-001,
          1.91529006e-001, 1.18955940e-001, 1.05150796e-001,
          1.05556659e-001, 1.13115080e-001, 7.75549412e-002,
          9.07214209e-002, 1.05562732e-001, 6.74344748e-002,
          7.02198818e-002, 8.37097391e-002, 9.02033672e-002,
          1.36251286e-001, 2.39311978e-001, 2.80548394e-001,
          2.24426135e-001, 1.22548394e-001, 1.35025978e-001,
          1.05491370e-001, 1.97589412e-001, 3.01472127e-001,
          2.97389418e-001, 1.95218340e-001, 1.93600088e-001,
          1.91386253e-001, 2.15271875e-001, 2.06297815e-001,
          1.62264869e-001, 1.73668936e-001, 1.56578600e-001,
          1.29737273e-001, 9.32813212e-002, 1.08573519e-001,
          8.08220953e-002, 8.79354030e-002, 7.83829316e-002,
          9.04666558e-002, 8.55629072e-002, 7.57171214e-002,
          9.56338719e-002, 1.50276467e-001, 2.11110428e-001,
          2.07775429e-001, 2.15982467e-001, 2.53562272e-001,
          1.49405837e-001, 1.15379438e-001, 1.12945192e-001,
          8.69201422e-002 ]
      - [ 2.52291858e-001, 1.77619502e-001, 1.69947818e-001,
          2.38263398e-001, 3.20628196e-001, 1.99991316e-001,
          1.33967876e-001, 9.67808664e-002, 1.15810573e-001,
          1.05272748e-001, 1.11442879e-001, 1.87048703e-001,
          1.54639095e-001, 1.29017442e-001, 1.90115392e-001,
          1.94963023e-001, 1.17128797e-001, 9.42111164e-002,
          1.07455917e-001, 1.20045058e-001, 1.02649115e-001,
          8.76273513e-002, 1.21766381e-001, 5.86957484e-002,
          4.56433184e-002, 5.16736731e-002, 8.82897303e-002,
          1.58735499e-001, 2.51692504e-001, 2.72922337e-001,
          2.21710905e-001, 1.27782062e-001, 1.26828521e-001,
          1.03646673e-001, 1.98747694e-001, 3.03746969e-001,
          2.87378877e-001, 1.83688760e-001, 1.98049664e-001,
          1.85948223e-001, 2.08860740e-001, 2.04803839e-001,
          1.61601275e-001, 1.67521939e-001, 1.58428043e-001,
          1.22727275e-001, 9.17035118e-002, 1.10395379e-001,
          8.33705291e-002, 7.61830062e-002, 9.12592039e-002,
          1.14546321e-001, 1.12511732e-001, 9.83533487e-002,
          9.29238871e-002, 1.41620651e-001, 2.08157524e-001,
          2.05678463e-001, 2.12302342e-001, 2.68202931e-001,
          1.84882328e-001, 1.19202793e-001, 9.48296636e-002,
          7.12648332e-002 ]
      - [ 2.21822023e-001, 1.77542686e-001, 1.72951251e-001,
          2.39040822e-001, 3.14266771e-001, 2.14097425e-001,
          1.28360406e-001, 9.26514193e-002, 1.11999243e-001,
          1.06350921e-001, 1.14902020e-001, 1.86831027e-001,
          1.60615698e-001, 1.31583989e-001, 2.02273861e-001,
          2.04662785e-001, 1.10639043e-001, 8.94257426e-002,
          1.05134241e-001, 1.06829621e-001, 1.05077192e-001,
          1.13573797e-001, 1.14987649e-001, 5.95260561e-002,
          6.71358109e-002, 6.31392971e-002, 9.20952186e-002,
          1.54688135e-001, 2.41352022e-001, 2.80984104e-001,
          2.19987586e-001, 1.26901507e-001, 1.26961768e-001,
          1.02764875e-001, 2.04391479e-001, 2.98486024e-001,
          2.88089335e-001, 1.96739465e-001, 1.86302096e-001,
          1.84826389e-001, 2.05694407e-001, 1.98268726e-001,
          1.57824412e-001, 1.72277763e-001, 1.56706735e-001,
          1.25220641e-001, 9.27430615e-002, 1.10521398e-001,
          9.97303873e-002, 9.67900828e-002, 8.16115886e-002,
          1.04919076e-001, 1.35648772e-001, 1.02003343e-001,
          1.01041749e-001, 1.43721730e-001, 1.88684240e-001,
          2.13284090e-001, 2.08942264e-001, 2.75628120e-001,
          1.86034113e-001, 1.06834762e-001, 1.01055317e-001,
          8.77515972e-002 ]
      - [ 2.24451333e-001, 1.72883511e-001, 1.86639890e-001,
          2.35743865e-001, 3.24062735e-001, 2.15234578e-001,
          1.34814397e-001, 9.14753452e-002, 1.15711898e-001,
          1.11897334e-001, 1.14686437e-001, 1.91030934e-001,
          1.64406970e-001, 1.30391836e-001, 2.02648312e-001,
          1.95201874e-001, 1.17951386e-001, 7.01900050e-002,
          9.14555266e-002, 8.37908313e-002, 9.12706703e-002,
          1.08758435e-001, 1.12308316e-001, 6.22734204e-002,
          4.71712723e-002, 5.77666946e-002, 8.45332742e-002,
          1.37470260e-001, 2.42721528e-001, 2.80964732e-001,
          2.16588527e-001, 1.33575529e-001, 1.24120563e-001,
          1.01396032e-001, 2.09579349e-001, 2.91774750e-001,
          3.05896491e-001, 1.89556658e-001, 1.97187826e-001,
          1.90506980e-001, 1.92388669e-001, 2.09973827e-001,
          1.56129763e-001, 1.75190672e-001, 1.63355619e-001,
          1.23730682e-001, 9.54863429e-002, 1.11796774e-001,
          1.02594271e-001, 9.10074115e-002, 9.58118364e-002,
          9.04482752e-002, 1.16611414e-001, 9.77239907e-002,
          1.11484334e-001, 1.64439842e-001, 1.95038408e-001,
          2.07321137e-001, 2.17456311e-001, 2.71360129e-001,
          1.80954680e-001, 1.27385288e-001, 1.10480115e-001,
          9.56196338e-002 ]
      - [ 2.62679130e-001, 1.52349547e-001, 1.74832344e-001,
          2.34635651e-001, 3.13961267e-001, 2.11512029e-001,
          1.23519130e-001, 8.55079293e-002, 1.15914226e-001,
          1.04247078e-001, 1.13725603e-001, 1.84274822e-001,
          1.49802148e-001, 1.23673134e-001, 1.95826665e-001,
          2.00385809e-001, 1.09372333e-001, 7.37490132e-002,
          1.15356602e-001, 1.25965133e-001, 1.00283094e-001,
          7.60195702e-002, 9.82920006e-002, 6.89441636e-002,
          5.52816465e-002, 5.30061647e-002, 1.12179302e-001,
          1.56602398e-001, 2.46821538e-001, 2.64567971e-001,
          2.10130602e-001, 1.23864502e-001, 1.25470147e-001,
          1.07239977e-001, 1.98033646e-001, 2.97037721e-001,
          2.89743006e-001, 1.93939328e-001, 1.86406329e-001,
          1.95168585e-001, 2.04560578e-001, 1.98856354e-001,
          1.60901740e-001, 1.71446204e-001, 1.59822941e-001,
          1.19837113e-001, 9.80513319e-002, 1.12477921e-001,
          9.38348845e-002, 8.99419785e-002, 1.03055313e-001,
          1.01425506e-001, 1.07172586e-001, 9.08930302e-002,
          1.04720883e-001, 1.48798928e-001, 1.95397109e-001,
          2.07091823e-001, 2.23877206e-001, 2.69428968e-001,
          1.65227011e-001, 1.13319889e-001, 1.12486385e-001,
          1.10591620e-001 ]
      - [ 2.42521092e-001, 1.55307502e-001, 1.80263847e-001,
          2.41377190e-001, 3.13849509e-001, 2.05029532e-001,
          1.35738298e-001, 9.75489616e-002, 1.11513585e-001,
          1.10794559e-001, 1.16770774e-001, 1.83290273e-001,
          1.54358819e-001, 1.23599708e-001, 1.97277561e-001,
          2.04213232e-001, 1.26969010e-001, 9.17281508e-002,
          9.38051417e-002, 1.16483092e-001, 7.94895515e-002,
          7.63502792e-002, 1.06025413e-001, 6.03818744e-002,
          7.38134682e-002, 7.58272260e-002, 9.83297080e-002,
          1.40949562e-001, 2.43016094e-001, 2.60314107e-001,
          2.14545175e-001, 1.29472047e-001, 1.29826590e-001,
          1.10445470e-001, 2.02359244e-001, 3.04722935e-001,
          2.75543660e-001, 1.96221709e-001, 1.98612094e-001,
          1.78216085e-001, 2.13798717e-001, 2.05820128e-001,
          1.58947453e-001, 1.72831491e-001, 1.57648116e-001,
          1.26282752e-001, 8.96783024e-002, 1.08229727e-001,
          8.06266218e-002, 8.50443915e-002, 9.07461643e-002,
          1.08770907e-001, 1.16649173e-001, 1.08087972e-001,
          1.07302219e-001, 1.60618320e-001, 1.88029557e-001,
          2.11264178e-001, 2.10971534e-001, 2.57584840e-001,
          1.84263825e-001, 1.34278223e-001, 1.16997458e-001,
          7.38307312e-002 ]
      - [ 2.27616727e-001, 1.63776070e-001, 1.78012073e-001,
          2.26024806e-001, 3.20612103e-001, 2.14835197e-001,
          1.15649410e-001, 1.01790622e-001, 1.15162492e-001,
          1.02896139e-001, 1.17795527e-001, 1.85206547e-001,
          1.50966436e-001, 1.30579248e-001, 1.92997590e-001,
          1.95970610e-001, 1.27185598e-001, 7.65624940e-002,
          9.29684266e-002, 1.06371194e-001, 1.24013789e-001,
          8.37201849e-002, 1.16642125e-001, 6.73423186e-002,
          4.15384844e-002, 5.42430058e-002, 7.74127319e-002,
          1.57148242e-001, 2.56695807e-001, 2.68197834e-001,
          2.09487662e-001, 1.30387247e-001, 1.30552560e-001,
          1.01851948e-001, 1.98066950e-001, 2.99065471e-001,
          2.77035892e-001, 2.01061040e-001, 1.91043541e-001,
          1.89700693e-001, 2.07719654e-001, 2.01754332e-001,
          1.60765469e-001, 1.65595129e-001, 1.55803382e-001,
          1.20703496e-001, 9.71072167e-002, 1.04539052e-001,
          9.91804898e-002, 1.03888653e-001, 1.01153463e-001,
          1.09162122e-001, 1.25062123e-001, 8.46533254e-002,
          8.73385072e-002, 1.57292798e-001, 2.04935879e-001,
          2.05704018e-001, 2.24622756e-001, 2.70726234e-001,
          1.75714061e-001, 1.11665100e-001, 1.06996246e-001,
          8.76114368e-002 ]
      - [ 2.36002684e-001, 1.80228055e-001, 1.64884537e-001,
          2.23467365e-001, 3.15038353e-001, 1.95192173e-001,
          1.44942939e-001, 8.95254463e-002, 1.14668258e-001,
          1.05527706e-001, 1.15370341e-001, 1.82500333e-001,
          1.48404539e-001, 1.23235680e-001, 2.08676994e-001,
          1.92059934e-001, 1.09877855e-001, 8.10455903e-002,
          1.16939299e-001, 1.16197295e-001, 1.01266406e-001,
          8.79591256e-002, 1.19561948e-001, 7.10747093e-002,
          6.59106895e-002, 6.87156767e-002, 1.12182863e-001,
          1.49154425e-001, 2.37842038e-001, 2.63734311e-001,
          2.25280479e-001, 1.29016072e-001, 1.21988483e-001,
          1.01223767e-001, 1.97276592e-001, 2.99248517e-001,
          2.66281426e-001, 1.97873309e-001, 1.92484483e-001,
          1.87980235e-001, 2.08151564e-001, 1.98255032e-001,
          1.63652673e-001, 1.62255049e-001, 1.51309639e-001,
          1.23677246e-001, 9.00245011e-002, 1.11426130e-001,
          9.65205878e-002, 7.74600878e-002, 8.28257427e-002,
          1.06928311e-001, 9.89138931e-002, 1.07266568e-001,
          1.06829748e-001, 1.38754711e-001, 2.04233244e-001,
          2.05244362e-001, 2.01292038e-001, 2.57778496e-001,
          1.78481579e-001, 1.21751294e-001, 1.12373561e-001,
          9.25295353e-002 ]
      - [ 2.17267990e-001, 1.56426385e-001, 1.73642531e-001,
          2.40117699e-001, 3.10133159e-001, 2.09145322e-001,
          1.21589832e-001, 9.03649479e-002, 1.18011318e-001,
          9.97553319e-002, 1.12328798e-001, 1.82226405e-001,
          1.47990376e-001, 1.24281146e-001, 2.03721061e-001,
          2.12957978e-001, 1.21059023e-001, 8.98624584e-002,
          8.80266652e-002, 9.18707848e-002, 1.03297323e-001,
          1.05643660e-001, 1.27223566e-001, 8.14888775e-002,
          6.88061565e-002, 7.43728876e-002, 8.91747475e-002,
          1.30416319e-001, 2.42324159e-001, 2.77818978e-001,
          2.20888242e-001, 1.40675440e-001, 1.28002867e-001,
          9.89544988e-002, 2.02897042e-001, 2.95239538e-001,
          2.79543608e-001, 2.00301602e-001, 1.87407777e-001,
          1.82024524e-001, 2.13150248e-001, 2.00595304e-001,
          1.60951614e-001, 1.66466936e-001, 1.57487497e-001,
          1.21207178e-001, 9.63053554e-002, 1.07054144e-001,
          9.22162756e-002, 8.77601206e-002, 1.08547874e-001,
          1.20146126e-001, 1.10426940e-001, 9.67133045e-002,
          9.99364629e-002, 1.55247167e-001, 2.06764981e-001,
          2.15601191e-001, 2.09847659e-001, 2.69635677e-001,
          1.64101511e-001, 1.26348555e-001, 1.27408803e-001,
          1.00920066e-001 ]
      - [ 2.12619931e-001, 1.32686526e-001, 1.64913177e-001,
          2.13376090e-001, 2.45406434e-001, 1.93055257e-001,
          1.12913594e-001, 9.39519629e-002, 1.13207348e-001,
          9.71652716e-002, 1.15130819e-001, 1.51984230e-001,
          1.41974479e-001, 1.16763763e-001, 2.00196326e-001,
          2.06109717e-001, 8.94343033e-002, 6.82112351e-002,
          7.18126148e-002, 8.26714486e-002, 6.77724928e-002,
          1.03498377e-001, 1.15451828e-001, 9.40116197e-002,
          6.18846752e-002, 4.44637872e-002, 6.53840750e-002,
          1.03384152e-001, 1.81716740e-001, 2.37029791e-001,
          2.26262867e-001, 1.12671621e-001, 1.17211081e-001,
          1.00792475e-001, 1.78723052e-001, 2.41142258e-001,
          2.63479769e-001, 1.93088323e-001, 1.62551016e-001,
          1.62525862e-001, 2.04468578e-001, 1.77082658e-001,
          1.48277774e-001, 1.53259560e-001, 1.39661014e-001,
          1.10735320e-001, 7.50972554e-002, 1.00863539e-001,
          8.94907564e-002, 8.34314004e-002, 1.18055068e-001,
          1.04852431e-001, 9.18937549e-002, 8.08155835e-002,
          1.00943506e-001, 1.32940471e-001, 1.92402899e-001,
          1.90328971e-001, 1.87513843e-001, 2.25600272e-001,
          1.72271356e-001, 1.13824561e-001, 1.04079008e-001,
          8.85919333e-002 ]
      - [ 2.17200279e-001, 1.35379553e-001, 1.68033555e-001,
          1.99810505e-001, 2.55939037e-001, 1.95222676e-001,
          1.26621038e-001, 1.00797169e-001, 1.21393524e-001,
          1.12137832e-001, 1.28152758e-001, 1.45112902e-001,
          1.50154680e-001, 1.25233293e-001, 1.92353114e-001,
          2.10651442e-001, 1.05295196e-001, 4.77654152e-002,
          6.05120920e-002, 6.79384992e-002, 5.05626500e-002,
          8.29561800e-002, 1.34042934e-001, 8.53767991e-002,
          5.42212464e-002, 4.87984642e-002, 6.23215325e-002,
          9.32040811e-002, 1.69123828e-001, 2.41144210e-001,
          2.09759414e-001, 1.25300676e-001, 1.19048759e-001,
          1.08059704e-001, 1.82908744e-001, 2.44223341e-001,
          2.50577569e-001, 1.88266829e-001, 1.78452417e-001,
          1.54085979e-001, 2.09478512e-001, 1.80579692e-001,
          1.49044365e-001, 1.52554750e-001, 1.34698227e-001,
          1.12048119e-001, 7.65945837e-002, 1.10763334e-001,
          8.46944377e-002, 9.01840851e-002, 8.02197233e-002,
          7.52019808e-002, 9.34640393e-002, 8.59017149e-002,
          9.19578373e-002, 1.44620523e-001, 1.84349284e-001,
          1.82189956e-001, 1.91610426e-001, 2.10859030e-001,
          1.62266791e-001, 1.04041018e-001, 1.10762954e-001,
          9.79932025e-002 ]
      - [ 2.00925112e-001, 1.55094460e-001, 1.77262932e-001,
          2.07687289e-001, 2.61217266e-001, 1.88682988e-001,
          1.23413771e-001, 9.83542129e-002, 1.15710601e-001,
          9.77828652e-002, 1.19073495e-001, 1.52873367e-001,
          1.49290547e-001, 1.34993851e-001, 2.07337216e-001,
          2.03220740e-001, 1.12797707e-001, 7.09210485e-002,
          7.43217617e-002, 9.48316827e-002, 5.18742017e-002,
          9.24182534e-002, 1.09911069e-001, 6.42380416e-002,
          6.10973760e-002, 5.89352883e-002, 8.14592838e-002,
          1.03464596e-001, 1.94435090e-001, 2.38812074e-001,
          2.05377966e-001, 1.11992694e-001, 1.20959602e-001,
          1.05879575e-001, 1.92993671e-001, 2.50892043e-001,
          2.66124099e-001, 1.99660331e-001, 1.65619373e-001,
          1.72363892e-001, 1.93227261e-001, 1.83437482e-001,
          1.52544528e-001, 1.58674911e-001, 1.43545821e-001,
          1.15495972e-001, 7.84940198e-002, 1.05725922e-001,
          8.09412524e-002, 8.80326554e-002, 1.03196383e-001,
          1.01452388e-001, 1.13991790e-001, 7.91557729e-002,
          8.38064775e-002, 1.31878391e-001, 1.91052705e-001,
          1.92013234e-001, 2.01643497e-001, 2.27132648e-001,
          1.68601230e-001, 1.12770520e-001, 9.93597955e-002,
          8.89810920e-002 ]
      - [ 1.94319829e-001, 1.56331316e-001, 1.54874429e-001,
          2.19590992e-001, 2.76480645e-001, 1.85996592e-001,
          1.18896730e-001, 8.87778103e-002, 1.11912698e-001,
          9.65691581e-002, 1.02143258e-001, 1.55683652e-001,
          1.32365808e-001, 1.23426057e-001, 2.26550445e-001,
          1.99288830e-001, 9.99865606e-002, 7.23123625e-002,
          9.57160220e-002, 1.12128779e-001, 8.71861354e-002,
          9.17497873e-002, 1.22578077e-001, 7.27279410e-002,
          5.97436316e-002, 6.17766194e-002, 1.00770183e-001,
          1.32806808e-001, 2.11268321e-001, 2.48106703e-001,
          2.14828417e-001, 1.22583926e-001, 1.25473365e-001,
          1.07425958e-001, 1.89804390e-001, 2.80635923e-001,
          2.44476065e-001, 1.86948717e-001, 1.77912101e-001,
          1.78813502e-001, 2.12517768e-001, 1.86145276e-001,
          1.48080096e-001, 1.55495167e-001, 1.46772772e-001,
          1.14771709e-001, 8.07270557e-002, 1.12811662e-001,
          9.34417322e-002, 7.89574534e-002, 1.00869313e-001,
          9.71557871e-002, 9.50812474e-002, 7.16339946e-002,
          9.40677598e-002, 1.49830207e-001, 1.91799283e-001,
          1.98421061e-001, 1.99414700e-001, 2.25194439e-001,
          1.63996294e-001, 1.05921231e-001, 1.19979545e-001,
          1.03428639e-001 ]
      - [ 9.87505242e-002, 1.27317637e-001, 9.26854163e-002,
          9.20595899e-002, 6.55415282e-002, 5.01522906e-002,
          3.43535915e-002, 4.22571711e-002, 6.15846068e-002,
          7.09200352e-002, 5.47714904e-002, 4.61160392e-002,
          4.73072119e-002, 4.00367975e-002, 4.52473015e-002,
          6.86779544e-002, 9.77837369e-002, 8.18004906e-002,
          5.15358783e-002, 3.74010690e-002, 3.96587215e-002,
          2.98586655e-002, 4.87587452e-002, 6.21886924e-002,
          7.34466761e-002, 6.97141588e-002, 6.99273795e-002,
          8.46349820e-002, 9.62791219e-002, 6.93400577e-002,
          6.92025721e-002, 9.28305537e-002, 1.90075673e-002,
          2.20992230e-002, 2.70344261e-002, 8.19112360e-002,
          1.24324687e-001, 9.72470418e-002, 7.24507868e-002,
          6.33060262e-002, 7.09213763e-002, 5.82728647e-002,
          5.37081026e-002, 5.51834814e-002, 6.08753413e-002,
          4.47253175e-002, 3.62171233e-002, 1.67641900e-002,
          1.95219759e-002, 2.94954795e-002, 3.54064964e-002,
          6.71160743e-002, 6.97339177e-002, 3.12960818e-002,
          3.18714157e-002, 5.16299009e-002, 6.67000189e-002,
          7.47482330e-002, 1.06484458e-001, 1.04485296e-001,
          8.48529115e-002, 4.15124968e-002, 2.91781966e-002,
          1.49030667e-002 ]
      - [ 1.12011522e-001, 1.21142596e-001, 9.07628536e-002,
          9.28033516e-002, 6.41891211e-002, 4.90481146e-002,
          3.50178368e-002, 3.74702588e-002, 5.94963208e-002,
          6.90345392e-002, 5.69939129e-002, 4.52740900e-002,
          4.73655686e-002, 3.45809758e-002, 3.80566828e-002,
          6.39965907e-002, 8.91610160e-002, 6.61119223e-002,
          4.94698994e-002, 3.98210362e-002, 4.25290614e-002,
          2.78858356e-002, 4.88116071e-002, 6.16492815e-002,
          6.77649751e-002, 7.00809509e-002, 7.21395388e-002,
          8.41690376e-002, 9.33070704e-002, 7.31772929e-002,
          7.53198788e-002, 1.01862289e-001, 1.95164569e-002,
          2.50392035e-002, 2.80501675e-002, 7.72462040e-002,
          1.28769308e-001, 9.80451182e-002, 7.52173290e-002,
          6.42403886e-002, 7.16182068e-002, 5.97087890e-002,
          5.38936406e-002, 5.58259599e-002, 6.21706881e-002,
          4.55150194e-002, 3.66807543e-002, 1.82571951e-002,
          1.90826058e-002, 2.95714643e-002, 3.70312631e-002,
          6.93642497e-002, 6.81928471e-002, 3.15214805e-002,
          3.53034772e-002, 4.76488732e-002, 7.05778301e-002,
          7.32609332e-002, 1.09798118e-001, 1.05913952e-001,
          8.28116685e-002, 4.60620672e-002, 2.73730494e-002,
          1.60682406e-002 ]
      - [ 1.01713143e-001, 1.21402085e-001, 9.60910916e-002,
          9.21786204e-002, 6.36874884e-002, 4.18228582e-002,
          2.97126621e-002, 3.16060856e-002, 6.10347763e-002,
          7.03963488e-002, 5.50394952e-002, 4.59733009e-002,
          4.59924825e-002, 3.66231538e-002, 4.45288047e-002,
          6.58608153e-002, 9.97137502e-002, 7.58624822e-002,
          5.42832911e-002, 3.83829474e-002, 4.88254093e-002,
          3.84833477e-002, 5.37942685e-002, 6.34897947e-002,
          6.67885393e-002, 6.85076714e-002, 7.61236027e-002,
          8.70357081e-002, 9.28383097e-002, 7.61610270e-002,
          7.06180856e-002, 9.56100523e-002, 2.30712369e-002,
          2.46446393e-002, 2.66773943e-002, 7.48725161e-002,
          1.26225963e-001, 1.01779826e-001, 7.63198808e-002,
          6.73658252e-002, 6.86278790e-002, 6.08766750e-002,
          5.21970168e-002, 5.71824238e-002, 6.59925193e-002,
          4.42132279e-002, 3.77760306e-002, 1.83181129e-002,
          1.82455257e-002, 2.98398081e-002, 3.65764946e-002,
          6.71598762e-002, 7.01990575e-002, 3.17641944e-002,
          3.37026455e-002, 4.58223484e-002, 7.01948255e-002,
          7.68659487e-002, 1.01444691e-001, 1.09774493e-001,
          8.28736424e-002, 4.07936722e-002, 2.70362981e-002,
          1.54869780e-002 ]
      - [ 1.11999147e-001, 1.17845595e-001, 9.63610187e-002,
          8.78296643e-002, 6.72976300e-002, 4.40096520e-002,
          3.13531682e-002, 3.74464318e-002, 5.81601448e-002,
          6.62963316e-002, 5.57451658e-002, 4.70324978e-002,
          4.39546406e-002, 3.21805924e-002, 4.14416604e-002,
          5.22217974e-002, 9.72103551e-002, 7.45339245e-002,
          5.13073020e-002, 4.61854003e-002, 5.36046103e-002,
          4.19733226e-002, 5.53983636e-002, 5.89140020e-002,
          7.09944442e-002, 7.47936368e-002, 7.19293803e-002,
          9.47651714e-002, 9.23489258e-002, 6.90283775e-002,
          8.53651986e-002, 9.99271870e-002, 1.99089739e-002,
          2.44868696e-002, 2.75878273e-002, 7.79801309e-002,
          1.26304761e-001, 9.51921120e-002, 7.72775039e-002,
          6.51215538e-002, 7.27312341e-002, 5.65912761e-002,
          5.31919450e-002, 5.61054200e-002, 6.20259158e-002,
          4.68072817e-002, 3.84155884e-002, 1.55679910e-002,
          1.75085161e-002, 2.88873855e-002, 3.62510458e-002,
          6.84895441e-002, 6.81069121e-002, 3.17288414e-002,
          3.46751809e-002, 4.66406830e-002, 6.95242137e-002,
          7.36053288e-002, 1.03388242e-001, 1.07825555e-001,
          8.26525614e-002, 4.33560200e-002, 2.66134813e-002,
          1.53551102e-002 ]
      - [ 1.07881397e-001, 1.15893647e-001, 9.14161354e-002,
          9.17038321e-002, 6.53736144e-002, 4.24746089e-002,
          2.85805818e-002, 3.52068245e-002, 5.68744056e-002,
          6.73861280e-002, 5.36839552e-002, 4.48362753e-002,
          4.54083979e-002, 3.58358286e-002, 3.97888273e-002,
          6.24685958e-002, 1.03811540e-001, 7.89481774e-002,
          5.50023988e-002, 3.76140364e-002, 3.31315324e-002,
          2.82455105e-002, 5.73254526e-002, 7.17542320e-002,
          7.45848343e-002, 7.02355206e-002, 6.48636147e-002,
          8.45883489e-002, 9.05693993e-002, 7.62799382e-002,
          7.99389929e-002, 1.03326321e-001, 2.00808626e-002,
          2.44554691e-002, 2.67326552e-002, 7.99868926e-002,
          1.24009989e-001, 9.52990800e-002, 7.22419992e-002,
          6.79984167e-002, 6.81962818e-002, 5.93885593e-002,
          5.24805449e-002, 5.66562675e-002, 6.27880692e-002,
          4.31389250e-002, 3.79848070e-002, 1.93605535e-002,
          1.88612137e-002, 2.94857342e-002, 3.56080830e-002,
          6.55394867e-002, 6.92425445e-002, 3.11822053e-002,
          3.09135225e-002, 4.75442633e-002, 7.06552789e-002,
          7.25679621e-002, 1.02180004e-001, 1.06183223e-001,
          8.14092308e-002, 4.15017903e-002, 2.89028846e-002,
          1.47734350e-002 ]
      - [ 1.04267918e-001, 1.19691752e-001, 1.02219231e-001,
          9.32679176e-002, 7.26110414e-002, 4.51236293e-002,
          3.25850993e-002, 3.99752893e-002, 6.11288585e-002,
          7.38786682e-002, 5.85845187e-002, 4.49309088e-002,
          5.03934436e-002, 4.18618172e-002, 5.40722087e-002,
          6.71916753e-002, 9.28743035e-002, 7.22385943e-002,
          5.45950942e-002, 3.98888066e-002, 4.63021360e-002,
          3.47648636e-002, 5.62425107e-002, 6.64449930e-002,
          6.76963851e-002, 7.63241500e-002, 6.71422407e-002,
          9.03272778e-002, 9.49691609e-002, 7.24735260e-002,
          7.21527264e-002, 1.01110265e-001, 1.68554056e-002,
          2.21638642e-002, 2.62762550e-002, 8.09429735e-002,
          1.29189223e-001, 9.85753611e-002, 7.13935643e-002,
          6.25636801e-002, 7.17945248e-002, 5.91610074e-002,
          5.50303422e-002, 5.68526499e-002, 6.52544051e-002,
          4.56448682e-002, 3.44077013e-002, 1.54703194e-002,
          1.66579746e-002, 3.00586354e-002, 3.79109569e-002,
          6.81630149e-002, 7.22840652e-002, 3.16195264e-002,
          2.94809658e-002, 5.24308570e-002, 7.02716857e-002,
          7.29463547e-002, 1.04777738e-001, 1.06114976e-001,
          8.91858786e-002, 4.36756462e-002, 2.64008641e-002,
          1.61194652e-002 ]
      - [ 1.09747350e-001, 1.20280109e-001, 9.54504460e-002,
          9.08198655e-002, 7.35241547e-002, 4.53031696e-002,
          3.34829539e-002, 4.39643338e-002, 6.00530952e-002,
          6.86797872e-002, 5.53604104e-002, 4.67264093e-002,
          4.56533954e-002, 4.16109674e-002, 5.54128140e-002,
          5.93159422e-002, 9.07474607e-002, 8.16581696e-002,
          4.97253723e-002, 4.52263914e-002, 4.12689708e-002,
          3.19435187e-002, 5.28706200e-002, 6.73006326e-002,
          7.81070441e-002, 6.86843097e-002, 7.07360655e-002,
          8.69917199e-002, 9.31824893e-002, 7.13247359e-002,
          7.91851282e-002, 1.01377115e-001, 1.89566966e-002,
          2.21023858e-002, 2.59924568e-002, 8.29593539e-002,
          1.26599252e-001, 1.01294540e-001, 7.33915120e-002,
          6.09343424e-002, 6.85606152e-002, 6.16881475e-002,
          5.36054522e-002, 5.96814230e-002, 6.51533157e-002,
          4.55543101e-002, 3.24394330e-002, 1.68737527e-002,
          1.73198506e-002, 2.97702048e-002, 3.64452936e-002,
          6.92769587e-002, 7.12346733e-002, 3.12553458e-002,
          3.37013714e-002, 5.24380580e-002, 6.79652020e-002,
          7.34990537e-002, 1.03828259e-001, 1.08422033e-001,
          8.75273123e-002, 4.10660654e-002, 2.66885106e-002,
          1.38234925e-002 ]
      - [ 1.17089070e-001, 1.17175013e-001, 9.00818184e-002,
          9.04366150e-002, 7.05712512e-002, 4.04205881e-002,
          2.76557859e-002, 3.26740369e-002, 5.81183061e-002,
          6.86073676e-002, 5.21105155e-002, 4.53588963e-002,
          4.45287675e-002, 3.29843685e-002, 3.83776128e-002,
          5.09320572e-002, 9.44645330e-002, 8.01277384e-002,
          5.05797602e-002, 3.87889743e-002, 4.12632003e-002,
          3.20935734e-002, 6.04765713e-002, 7.13834390e-002,
          7.18687549e-002, 6.50859103e-002, 6.96065500e-002,
          8.91546905e-002, 9.17111039e-002, 7.51109421e-002,
          8.08832198e-002, 1.08708180e-001, 1.74103566e-002,
          2.50057820e-002, 2.72263996e-002, 8.41392949e-002,
          1.21761180e-001, 1.03351966e-001, 7.21505508e-002,
          6.87012225e-002, 6.94388375e-002, 5.97801730e-002,
          5.29451109e-002, 5.82381636e-002, 6.41513541e-002,
          4.61332761e-002, 3.74722518e-002, 1.52307982e-002,
          1.84734166e-002, 2.90266220e-002, 3.78239006e-002,
          6.69189915e-002, 7.26092309e-002, 3.05440575e-002,
          3.30026224e-002, 4.77662981e-002, 7.16424957e-002,
          7.20943436e-002, 1.06673107e-001, 1.05574362e-001,
          8.72109830e-002, 4.00562771e-002, 2.63822172e-002,
          1.36636803e-002 ]
      - [ 1.09228171e-001, 1.21815160e-001, 9.12128687e-002,
          9.10160318e-002, 6.58057854e-002, 4.25100140e-002,
          3.03188022e-002, 3.70818153e-002, 6.04902208e-002,
          7.04900548e-002, 5.62001206e-002, 4.81385216e-002,
          4.51743454e-002, 3.19267996e-002, 4.23606224e-002,
          6.12318181e-002, 8.49981159e-002, 8.07745829e-002,
          5.82144074e-002, 4.31383774e-002, 4.76600789e-002,
          3.61011624e-002, 5.51108196e-002, 5.99515662e-002,
          7.50419721e-002, 7.32042417e-002, 7.42033944e-002,
          8.72487128e-002, 9.39294547e-002, 7.72527531e-002,
          7.65982941e-002, 1.01442829e-001, 1.82464719e-002,
          2.33491808e-002, 2.70959660e-002, 7.56122842e-002,
          1.27006561e-001, 9.60007831e-002, 7.15791136e-002,
          6.81030154e-002, 6.89784214e-002, 5.89869432e-002,
          5.16043790e-002, 5.82516156e-002, 6.27930164e-002,
          4.33737151e-002, 3.34161185e-002, 1.61193181e-002,
          1.69662684e-002, 2.82652546e-002, 3.82342525e-002,
          6.80682436e-002, 6.95468113e-002, 3.02299131e-002,
          3.31625976e-002, 4.91902791e-002, 7.00971782e-002,
          7.46036470e-002, 1.03363037e-001, 1.08219683e-001,
          8.28576908e-002, 4.13215831e-002, 2.47591138e-002,
          1.50797851e-002 ]
      - [ 1.15685329e-001, 1.14125401e-001, 8.73682201e-002,
          9.43429619e-002, 6.47267699e-002, 3.94917317e-002,
          3.06887664e-002, 3.44081335e-002, 5.71092106e-002,
          6.73816726e-002, 5.31986132e-002, 4.72599082e-002,
          4.24864069e-002, 3.58734205e-002, 3.66624109e-002,
          5.39154112e-002, 1.00240313e-001, 8.22296739e-002,
          5.24001718e-002, 4.04256992e-002, 5.04591465e-002,
          4.18497287e-002, 5.40692545e-002, 6.27412498e-002,
          7.00263977e-002, 6.53673634e-002, 7.05853701e-002,
          8.46509933e-002, 9.25115347e-002, 8.07919949e-002,
          8.51706043e-002, 8.58967304e-002, 1.70043167e-002,
          2.41017193e-002, 2.77382359e-002, 8.04801136e-002,
          1.19095594e-001, 1.01315707e-001, 7.44156167e-002,
          6.75452724e-002, 6.72322139e-002, 5.74981682e-002,
          4.88212705e-002, 5.45857735e-002, 6.24832138e-002,
          4.36075740e-002, 3.29384990e-002, 1.56867150e-002,
          1.69736929e-002, 2.94090770e-002, 3.52647044e-002,
          6.62783831e-002, 7.13057294e-002, 2.96424441e-002,
          3.61216888e-002, 4.94524799e-002, 6.96044043e-002,
          7.38877207e-002, 1.01753220e-001, 1.08895138e-001,
          8.41246396e-002, 4.37863618e-002, 2.67193653e-002,
          1.51093481e-002 ]
      - [ 1.14487745e-001, 1.18384898e-001, 8.44946876e-002,
          9.19728726e-002, 6.63684532e-002, 4.38897386e-002,
          3.03844549e-002, 3.57689112e-002, 5.92034981e-002,
          6.97961077e-002, 5.51578365e-002, 4.52241898e-002,
          4.55060713e-002, 3.30855362e-002, 4.52752747e-002,
          6.04824312e-002, 1.03318244e-001, 6.22708350e-002,
          5.07243425e-002, 4.40824553e-002, 4.31862250e-002,
          3.52029800e-002, 4.97616045e-002, 5.98916076e-002,
          6.94006681e-002, 6.43217340e-002, 6.52791783e-002,
          8.32648873e-002, 9.18388143e-002, 7.28241801e-002,
          7.77205750e-002, 1.01397954e-001, 1.63869299e-002,
          2.33180877e-002, 2.49066781e-002, 8.16407353e-002,
          1.23496406e-001, 9.13848951e-002, 7.93837979e-002,
          6.58225268e-002, 7.24755228e-002, 5.67190126e-002,
          4.81453575e-002, 5.36915250e-002, 6.28237128e-002,
          4.24174778e-002, 3.39137800e-002, 1.47761190e-002,
          1.68686528e-002, 2.93116495e-002, 3.63967270e-002,
          6.78030998e-002, 7.12046549e-002, 3.06514688e-002,
          3.01176235e-002, 5.20843416e-002, 7.22636729e-002,
          7.00748041e-002, 1.06925786e-001, 1.05373912e-001,
          8.58896598e-002, 4.74551357e-002, 2.70328913e-002,
          1.39415246e-002 ]
      - [ 1.13237858e-001, 1.16020694e-001, 8.72568637e-002,
          9.10102874e-002, 7.23176524e-002, 4.89828140e-002,
          2.99655180e-002, 3.68421786e-002, 5.95073067e-002,
          6.99888393e-002, 5.16394749e-002, 4.65806276e-002,
          4.64262068e-002, 3.22132073e-002, 3.96190733e-002,
          6.22505769e-002, 8.86458829e-002, 7.34366700e-002,
          4.94864807e-002, 4.76351343e-002, 4.72215638e-002,
          4.11188453e-002, 5.07023819e-002, 5.73598333e-002,
          6.59201667e-002, 6.43107444e-002, 6.81254864e-002,
          8.71704221e-002, 9.51976925e-002, 7.88433850e-002,
          7.81613141e-002, 8.90924931e-002, 1.76518094e-002,
          2.30673011e-002, 2.48677190e-002, 7.27251023e-002,
          1.28207490e-001, 9.43641514e-002, 7.66664371e-002,
          6.09247088e-002, 7.07000867e-002, 5.60951196e-002,
          4.81733680e-002, 5.14252894e-002, 6.18880391e-002,
          4.01750393e-002, 3.28942910e-002, 1.52238794e-002,
          1.78625956e-002, 2.89405175e-002, 3.61816324e-002,
          6.92150146e-002, 7.17758611e-002, 3.18200886e-002,
          3.41362804e-002, 4.93886434e-002, 6.78978190e-002,
          7.32465163e-002, 1.05481178e-001, 1.09460942e-001,
          8.70599896e-002, 4.36065160e-002, 2.81206965e-002,
          1.42731778e-002 ]
      - [ 1.06324963e-001, 1.11843310e-001, 9.20003429e-002,
          8.97837132e-002, 6.41217828e-002, 4.60585915e-002,
          3.32834199e-002, 3.28725837e-002, 5.79479039e-002,
          6.78946003e-002, 5.23492098e-002, 4.39541563e-002,
          4.25543152e-002, 3.54759619e-002, 3.69883664e-002,
          6.42788857e-002, 1.02220945e-001, 7.59062171e-002,
          4.31678221e-002, 3.96106094e-002, 4.06155586e-002,
          3.56513076e-002, 5.47719970e-002, 6.29017577e-002,
          6.53012916e-002, 6.20951392e-002, 6.43351674e-002,
          8.03233236e-002, 9.31804031e-002, 7.15559572e-002,
          7.94820562e-002, 9.76289883e-002, 1.82518549e-002,
          2.25965101e-002, 2.62766071e-002, 6.55759871e-002,
          1.28002986e-001, 9.14453864e-002, 7.63380900e-002,
          6.25154302e-002, 6.87836260e-002, 5.60823046e-002,
          4.62930687e-002, 4.98728044e-002, 6.05035424e-002,
          3.97543423e-002, 3.38487737e-002, 1.66078471e-002,
          1.75642408e-002, 2.86641140e-002, 3.54080312e-002,
          6.58362731e-002, 7.02905655e-002, 3.07855159e-002,
          3.16528790e-002, 4.73488830e-002, 6.94183931e-002,
          7.36169070e-002, 1.00737065e-001, 1.07165903e-001,
          8.53667110e-002, 4.30865176e-002, 2.89469976e-002,
          1.39283035e-002 ]
      - [ 1.10128000e-001, 1.14945121e-001, 9.31740105e-002,
          9.31875855e-002, 6.81224465e-002, 4.69658710e-002,
          3.20092589e-002, 3.84969674e-002, 6.00632839e-002,
          7.32263625e-002, 5.59766814e-002, 4.48390990e-002,
          4.46638539e-002, 3.71366218e-002, 4.49941903e-002,
          6.25326559e-002, 8.97136405e-002, 7.37899989e-002,
          5.49694262e-002, 4.23868746e-002, 4.55663949e-002,
          3.03743631e-002, 4.44152318e-002, 5.98002709e-002,
          6.61047548e-002, 6.29353672e-002, 6.54064044e-002,
          8.71834978e-002, 9.41448361e-002, 6.89476579e-002,
          7.05943480e-002, 8.75197127e-002, 1.82692613e-002,
          2.40058135e-002, 2.38728356e-002, 6.79833665e-002,
          1.30861923e-001, 9.60152447e-002, 7.01657161e-002,
          6.53613210e-002, 7.18148798e-002, 5.66466302e-002,
          4.40749861e-002, 5.19639738e-002, 6.03961162e-002,
          4.16172482e-002, 3.21170390e-002, 1.45056183e-002,
          1.80971250e-002, 2.87149698e-002, 3.64070199e-002,
          6.75196648e-002, 7.13797435e-002, 3.09439246e-002,
          2.86472328e-002, 5.25430553e-002, 7.08051622e-002,
          7.06538558e-002, 1.06543958e-001, 1.07357405e-001,
          8.66174772e-002, 4.62768860e-002, 2.73957830e-002,
          1.32692307e-002 ]
      - [ 1.13495909e-001, 1.15337044e-001, 8.51137191e-002,
          9.26831514e-002, 6.36490807e-002, 4.98974435e-002,
          3.12574133e-002, 3.85634266e-002, 5.93153909e-002,
          6.87725544e-002, 5.32632433e-002, 4.48886268e-002,
          4.49252762e-002, 3.50721255e-002, 3.88080515e-002,
          5.88946454e-002, 9.61665511e-002, 7.86616355e-002,
          4.94928211e-002, 3.41969170e-002, 4.33385186e-002,
          3.57349776e-002, 5.28590530e-002, 6.64923862e-002,
          6.70406371e-002, 6.42262697e-002, 6.82368651e-002,
          8.50829557e-002, 9.60979462e-002, 7.77269304e-002,
          7.78072625e-002, 8.56404975e-002, 1.70287564e-002,
          2.33621430e-002, 2.38789637e-002, 7.76583254e-002,
          1.18599020e-001, 1.01373650e-001, 6.95123672e-002,
          7.06404373e-002, 6.45605251e-002, 5.57864942e-002,
          4.51178961e-002, 4.90843058e-002, 6.16319478e-002,
          4.15493175e-002, 3.07029001e-002, 1.34439375e-002,
          1.64735559e-002, 2.87964381e-002, 3.61501947e-002,
          6.66513070e-002, 7.17843994e-002, 3.07743140e-002,
          2.81359982e-002, 5.42133301e-002, 7.02591911e-002,
          6.92220479e-002, 1.05320632e-001, 1.08020902e-001,
          8.37529749e-002, 4.56004739e-002, 2.83662900e-002,
          1.45682450e-002 ]
      - [ 1.10200994e-001, 1.08714476e-001, 1.00237340e-001,
          8.52744430e-002, 7.32988119e-002, 4.61848117e-002,
          2.99426671e-002, 3.82095873e-002, 5.86448088e-002,
          6.94646537e-002, 5.39173968e-002, 4.71085161e-002,
          4.47614826e-002, 3.45340855e-002, 3.79163064e-002,
          7.07093030e-002, 8.81869718e-002, 6.98547289e-002,
          4.31742407e-002, 3.67871374e-002, 4.64549959e-002,
          3.23039219e-002, 5.76941669e-002, 7.09358528e-002,
          6.27577007e-002, 5.96254095e-002, 6.66600317e-002,
          8.65309611e-002, 8.92705843e-002, 7.40324259e-002,
          7.85729960e-002, 1.01760872e-001, 1.87829938e-002,
          2.41964683e-002, 2.40171682e-002, 7.10122660e-002,
          1.27742305e-001, 9.72922891e-002, 7.55271018e-002,
          6.58992529e-002, 6.75043315e-002, 5.71515486e-002,
          4.74243239e-002, 5.28104976e-002, 6.19228892e-002,
          4.16649655e-002, 3.22745964e-002, 1.50603522e-002,
          1.78096648e-002, 2.97063552e-002, 3.61688547e-002,
          6.91627264e-002, 7.23884106e-002, 3.13971862e-002,
          3.25722322e-002, 4.74476218e-002, 6.79933503e-002,
          7.61488453e-002, 1.03582799e-001, 1.12951308e-001,
          8.52186382e-002, 4.35856804e-002, 2.65421886e-002,
          1.44033432e-002 ]
      - [ 1.10861488e-001, 1.13248460e-001, 9.08771455e-002,
          9.31525007e-002, 6.64250627e-002, 4.12707701e-002,
          3.80259231e-002, 3.91311049e-002, 5.99105172e-002,
          6.97085187e-002, 5.39616793e-002, 4.79451381e-002,
          5.03663234e-002, 4.04928476e-002, 4.62525748e-002,
          6.40542954e-002, 9.63322297e-002, 6.37309626e-002,
          4.75277863e-002, 4.37677540e-002, 5.06075062e-002,
          4.20581140e-002, 5.57814799e-002, 5.31617478e-002,
          6.49166554e-002, 6.66501969e-002, 6.34418353e-002,
          8.71886462e-002, 9.30943638e-002, 8.08675885e-002,
          7.15835169e-002, 9.33495536e-002, 1.67468004e-002,
          2.39777267e-002, 2.48152297e-002, 7.35106319e-002,
          1.27435118e-001, 9.69229043e-002, 7.40104094e-002,
          5.81377707e-002, 7.20631704e-002, 5.97287007e-002,
          4.32463847e-002, 5.38832434e-002, 6.28381670e-002,
          4.26166616e-002, 3.21365409e-002, 1.73795149e-002,
          1.76943447e-002, 2.96801664e-002, 3.50915156e-002,
          6.93018138e-002, 7.08228722e-002, 2.96740942e-002,
          3.41327675e-002, 5.32067530e-002, 6.48897067e-002,
          7.33182952e-002, 1.04641274e-001, 1.08547322e-001,
          8.56207237e-002, 4.28480841e-002, 2.82572601e-002,
          1.31185399e-002 ]
      - [ 1.02580599e-001, 1.25608861e-001, 9.08888727e-002,
          9.40065309e-002, 6.86210170e-002, 4.56742495e-002,
          3.42156366e-002, 3.37759964e-002, 6.18743561e-002,
          7.27895051e-002, 5.66975400e-002, 4.66733761e-002,
          4.52430844e-002, 3.66977751e-002, 5.07891029e-002,
          6.49589300e-002, 8.98197740e-002, 6.86329827e-002,
          4.88429405e-002, 3.70901078e-002, 4.06000502e-002,
          3.59767266e-002, 5.16964756e-002, 6.13419227e-002,
          6.68067709e-002, 6.32714108e-002, 6.49239421e-002,
          8.46410170e-002, 9.08094049e-002, 7.74980113e-002,
          7.71484300e-002, 8.99562165e-002, 2.17094235e-002,
          2.34132782e-002, 2.61195954e-002, 7.13217035e-002,
          1.33377597e-001, 9.58968997e-002, 7.25646988e-002,
          7.06320256e-002, 6.71720281e-002, 6.07149601e-002,
          4.71436642e-002, 5.39055653e-002, 6.57379106e-002,
          4.22002785e-002, 3.34240161e-002, 1.82575509e-002,
          1.77143589e-002, 2.95596197e-002, 3.69676873e-002,
          7.03332275e-002, 7.25108385e-002, 3.11242472e-002,
          3.40882502e-002, 4.97906990e-002, 6.85271695e-002,
          7.43188933e-002, 1.07955679e-001, 1.06465779e-001,
          8.92468542e-002, 4.40205149e-002, 2.76566111e-002,
          1.50717506e-002 ]
      - [ 1.08831041e-001, 1.20935977e-001, 9.11630616e-002,
          9.12445933e-002, 6.93162009e-002, 4.22348604e-002,
          3.00871301e-002, 3.89180481e-002, 5.99032901e-002,
          6.94614053e-002, 5.70015162e-002, 4.59692664e-002,
          4.45561633e-002, 3.62956934e-002, 4.43788320e-002,
          6.35541528e-002, 8.47038925e-002, 7.08112419e-002,
          4.74389344e-002, 3.58174555e-002, 4.11454886e-002,
          3.14970911e-002, 5.20695485e-002, 5.98086156e-002,
          6.54286519e-002, 6.65490627e-002, 6.20667525e-002,
          8.76438841e-002, 9.34603587e-002, 7.08823577e-002,
          7.60068074e-002, 9.15039703e-002, 1.86445732e-002,
          2.41971090e-002, 2.70054899e-002, 8.06769282e-002,
          1.27171040e-001, 1.01136997e-001, 7.17710480e-002,
          7.07532018e-002, 7.15631172e-002, 6.13137558e-002,
          4.77306284e-002, 5.48567027e-002, 6.60047904e-002,
          4.55255732e-002, 3.68552096e-002, 1.75201744e-002,
          1.67133324e-002, 3.06042396e-002, 3.88872363e-002,
          6.97171614e-002, 7.35161379e-002, 3.07510961e-002,
          3.42311487e-002, 4.70396765e-002, 7.42973089e-002,
          7.28773177e-002, 1.08659044e-001, 1.11655496e-001,
          8.56777877e-002, 4.33756784e-002, 2.78889537e-002,
          1.36965374e-002 ]
      - [ 1.08630463e-001, 1.15438096e-001, 8.23245943e-002,
          9.76339132e-002, 6.67397380e-002, 4.40537781e-002,
          3.52607518e-002, 3.78486700e-002, 5.95578477e-002,
          7.05360547e-002, 5.49646877e-002, 4.80368733e-002,
          4.58543859e-002, 3.59792560e-002, 4.52221744e-002,
          6.08370155e-002, 9.84902009e-002, 7.94308633e-002,
          5.20924889e-002, 4.03155498e-002, 4.24587391e-002,
          3.35633270e-002, 5.94065860e-002, 6.59291744e-002,
          6.42453432e-002, 6.42188564e-002, 6.60353377e-002,
          9.24656242e-002, 9.43822265e-002, 7.47672021e-002,
          6.72846958e-002, 9.01359543e-002, 1.83146242e-002,
          2.22580116e-002, 2.44182590e-002, 7.07592070e-002,
          1.24415174e-001, 9.73383188e-002, 6.94839731e-002,
          6.30779266e-002, 6.85436279e-002, 5.72274178e-002,
          4.33104932e-002, 5.17155230e-002, 6.10739216e-002,
          4.16306853e-002, 3.11718788e-002, 1.51882144e-002,
          1.84407514e-002, 2.79607680e-002, 3.73371094e-002,
          6.66674972e-002, 6.98854998e-002, 2.98712552e-002,
          3.18404213e-002, 5.23719303e-002, 6.66562691e-002,
          7.08043799e-002, 1.03579983e-001, 1.05416216e-001,
          8.57242197e-002, 4.23234440e-002, 2.75073200e-002,
          1.29487189e-002 ]
      - [ 1.09080881e-001, 1.28959030e-001, 8.89320895e-002,
          1.02285296e-001, 6.67415559e-002, 4.98154908e-002,
          3.41318063e-002, 4.32046093e-002, 6.03258647e-002,
          7.14103281e-002, 5.84017634e-002, 5.11896200e-002,
          4.59213890e-002, 3.44750360e-002, 4.39241156e-002,
          7.19084069e-002, 8.95910934e-002, 7.09094182e-002,
          4.51748222e-002, 3.43534276e-002, 4.11474407e-002,
          2.69831680e-002, 4.44961078e-002, 5.86414635e-002,
          6.50594309e-002, 6.61545321e-002, 6.66919723e-002,
          8.98764133e-002, 9.60233808e-002, 6.93724006e-002,
          7.20094815e-002, 9.29278582e-002, 1.80037525e-002,
          2.33086236e-002, 2.52109990e-002, 8.00761580e-002,
          1.34274334e-001, 9.72692221e-002, 8.09532329e-002,
          6.36458620e-002, 7.26761371e-002, 5.98947741e-002,
          5.03326729e-002, 6.29594028e-002, 6.95870891e-002,
          4.39801551e-002, 3.02785132e-002, 1.49203036e-002,
          1.76158436e-002, 3.10476646e-002, 3.61844972e-002,
          7.48194680e-002, 7.36947432e-002, 3.15058641e-002,
          3.61371487e-002, 4.82491106e-002, 7.50684068e-002,
          7.48339742e-002, 1.08372405e-001, 1.15230806e-001,
          8.62088129e-002, 4.24593762e-002, 2.56408136e-002,
          1.21565387e-002 ]
      - [ 1.09068289e-001, 1.26899451e-001, 9.47428644e-002,
          9.54776630e-002, 7.34572634e-002, 4.86277305e-002,
          3.68214659e-002, 4.33795564e-002, 6.34879321e-002,
          7.02507645e-002, 5.79144508e-002, 5.05130589e-002,
          4.67038266e-002, 3.78053971e-002, 4.54883687e-002,
          6.61939606e-002, 8.65769535e-002, 6.99585825e-002,
          5.21796681e-002, 4.06789891e-002, 4.46400493e-002,
          2.59729419e-002, 5.08817099e-002, 5.76585419e-002,
          6.48257360e-002, 6.32198676e-002, 6.83508590e-002,
          8.85122865e-002, 1.00771211e-001, 6.96986392e-002,
          7.56292716e-002, 8.63356814e-002, 1.84495673e-002,
          2.40904558e-002, 2.60043051e-002, 8.13654438e-002,
          1.32538870e-001, 9.94017795e-002, 7.41658211e-002,
          6.62911013e-002, 6.63773939e-002, 6.25876486e-002,
          5.04025221e-002, 5.96784055e-002, 6.84826523e-002,
          4.24342789e-002, 3.21307331e-002, 1.74859036e-002,
          1.62023362e-002, 3.05014774e-002, 3.70870717e-002,
          7.28825778e-002, 7.33570680e-002, 3.08502987e-002,
          3.52674387e-002, 4.83380109e-002, 7.33893141e-002,
          7.35454410e-002, 1.06933504e-001, 1.14424363e-001,
          8.82648528e-002, 4.33213897e-002, 2.47085802e-002,
          1.21398177e-002 ]
      - [ 1.10379376e-001, 1.22924894e-001, 9.90484357e-002,
          9.15085971e-002, 7.73519278e-002, 4.46490161e-002,
          3.81393805e-002, 3.79229002e-002, 6.08249418e-002,
          7.00819120e-002, 6.01373799e-002, 5.07108942e-002,
          4.71334159e-002, 3.44730839e-002, 4.64191735e-002,
          6.68751150e-002, 9.43608731e-002, 6.91028759e-002,
          4.73763086e-002, 3.51351164e-002, 3.71278375e-002,
          3.22842300e-002, 5.06564006e-002, 5.90682589e-002,
          7.02284351e-002, 6.73315153e-002, 6.45292029e-002,
          9.18762386e-002, 9.69787687e-002, 7.14407638e-002,
          6.56650141e-002, 9.68910977e-002, 2.13729534e-002,
          2.61598770e-002, 2.57798992e-002, 8.96972641e-002,
          1.31514221e-001, 9.87773016e-002, 7.05911964e-002,
          6.77917823e-002, 7.24951699e-002, 5.82144149e-002,
          5.56322336e-002, 6.50554001e-002, 7.08134845e-002,
          4.29167077e-002, 3.30279805e-002, 1.39667829e-002,
          1.77280344e-002, 3.03221326e-002, 3.82519066e-002,
          7.40437806e-002, 7.29290247e-002, 3.17231379e-002,
          3.19205001e-002, 5.12855686e-002, 7.48770460e-002,
          7.53645673e-002, 1.06485799e-001, 1.14208326e-001,
          8.60500112e-002, 4.19646166e-002, 2.52365638e-002,
          1.33627551e-002 ]
      - [ 1.02020837e-001, 1.27267212e-001, 1.01589151e-001,
          9.49273780e-002, 7.76519999e-002, 4.62132357e-002,
          3.40421982e-002, 3.99126373e-002, 6.06243834e-002,
          6.99444041e-002, 6.45680651e-002, 5.20488136e-002,
          4.85540181e-002, 3.40566151e-002, 4.59427759e-002,
          7.15192482e-002, 9.40093622e-002, 7.11381733e-002,
          4.74285409e-002, 4.04589139e-002, 4.44439575e-002,
          2.95536350e-002, 4.76503484e-002, 6.31257743e-002,
          7.04650730e-002, 6.46654963e-002, 6.92560822e-002,
          8.96150395e-002, 9.55342948e-002, 6.84288219e-002,
          7.60328323e-002, 9.83667746e-002, 1.62233971e-002,
          2.31798477e-002, 3.03369500e-002, 8.03931281e-002,
          1.35585502e-001, 9.58208293e-002, 7.25191236e-002,
          6.68998510e-002, 7.22768754e-002, 5.92886806e-002,
          5.43749370e-002, 6.12249412e-002, 6.89872876e-002,
          4.44233827e-002, 3.03938873e-002, 1.53855132e-002,
          1.58934202e-002, 3.03184744e-002, 3.75601128e-002,
          7.45310262e-002, 7.27827922e-002, 3.16673666e-002,
          3.51320505e-002, 5.04101925e-002, 7.36919865e-002,
          7.51629174e-002, 1.07246198e-001, 1.14390925e-001,
          8.62951502e-002, 4.29145731e-002, 2.57941093e-002,
          1.45478258e-002 ]
      - [ 1.09009154e-001, 1.20797716e-001, 8.61372277e-002,
          9.37702432e-002, 6.80965707e-002, 3.90090570e-002,
          2.94519290e-002, 3.29026170e-002, 5.79769872e-002,
          6.84791133e-002, 5.46244793e-002, 4.60376032e-002,
          4.60580215e-002, 3.29893976e-002, 4.27602418e-002,
          6.47622272e-002, 1.05027921e-001, 7.34152943e-002,
          5.10816164e-002, 4.43397164e-002, 3.78510244e-002,
          4.28788736e-002, 6.35025874e-002, 6.59914240e-002,
          7.59568512e-002, 6.93926662e-002, 6.86540976e-002,
          8.84156898e-002, 9.38132182e-002, 7.13653788e-002,
          8.42195526e-002, 1.11297168e-001, 1.87739003e-002,
          2.83464566e-002, 3.20236236e-002, 8.30987841e-002,
          1.27357587e-001, 9.39033255e-002, 7.81225711e-002,
          6.58197775e-002, 7.00572133e-002, 6.24611042e-002,
          5.17564453e-002, 6.47341907e-002, 7.12826177e-002,
          4.06305604e-002, 3.27370651e-002, 1.58026833e-002,
          1.74779631e-002, 2.93923318e-002, 3.69781069e-002,
          7.19403848e-002, 7.04103634e-002, 2.86881346e-002,
          2.77446825e-002, 5.44392392e-002, 6.98794797e-002,
          7.12594539e-002, 1.03959553e-001, 1.13073230e-001,
          7.78982341e-002, 3.92335132e-002, 2.38564573e-002,
          1.31376553e-002 ]
